{"learner":{"attributes":{"scikit_learn":"{\"_estimator_type\": \"classifier\"}"},"feature_names":["CAN_ID_Inter_Arrival","CAN_ID_Window_Count","Payload_Entropy","Norm_Inter_Arrival","Norm_Window_Count","Norm_Payload_Entropy","Norm_Payload_Decimal","Suspension_Indicator"],"feature_types":["float","int","float","float","float","float","float","float"],"gradient_booster":{"model":{"gbtree_model_param":{"num_parallel_tree":"1","num_trees":"800"},"iteration_indptr":[0,4,8,12,16,20,24,28,32,36,40,44,48,52,56,60,64,68,72,76,80,84,88,92,96,100,104,108,112,116,120,124,128,132,136,140,144,148,152,156,160,164,168,172,176,180,184,188,192,196,200,204,208,212,216,220,224,228,232,236,240,244,248,252,256,260,264,268,272,276,280,284,288,292,296,300,304,308,312,316,320,324,328,332,336,340,344,348,352,356,360,364,368,372,376,380,384,388,392,396,400,404,408,412,416,420,424,428,432,436,440,444,448,452,456,460,464,468,472,476,480,484,488,492,496,500,504,508,512,516,520,524,528,532,536,540,544,548,552,556,560,564,568,572,576,580,584,588,592,596,600,604,608,612,616,620,624,628,632,636,640,644,648,652,656,660,664,668,672,676,680,684,688,692,696,700,704,708,712,716,720,724,728,732,736,740,744,748,752,756,760,764,768,772,776,780,784,788,792,796,800],"tree_info":[0,1,2,3,0,1,2,3,0,1,2,3,0,1,2,3,0,1,2,3,0,1,2,3,0,1,2,3,0,1,2,3,0,1,2,3,0,1,2,3,0,1,2,3,0,1,2,3,0,1,2,3,0,1,2,3,0,1,2,3,0,1,2,3,0,1,2,3,0,1,2,3,0,1,2,3,0,1,2,3,0,1,2,3,0,1,2,3,0,1,2,3,0,1,2,3,0,1,2,3,0,1,2,3,0,1,2,3,0,1,2,3,0,1,2,3,0,1,2,3,0,1,2,3,0,1,2,3,0,1,2,3,0,1,2,3,0,1,2,3,0,1,2,3,0,1,2,3,0,1,2,3,0,1,2,3,0,1,2,3,0,1,2,3,0,1,2,3,0,1,2,3,0,1,2,3,0,1,2,3,0,1,2,3,0,1,2,3,0,1,2,3,0,1,2,3,0,1,2,3,0,1,2,3,0,1,2,3,0,1,2,3,0,1,2,3,0,1,2,3,0,1,2,3,0,1,2,3,0,1,2,3,0,1,2,3,0,1,2,3,0,1,2,3,0,1,2,3,0,1,2,3,0,1,2,3,0,1,2,3,0,1,2,3,0,1,2,3,0,1,2,3,0,1,2,3,0,1,2,3,0,1,2,3,0,1,2,3,0,1,2,3,0,1,2,3,0,1,2,3,0,1,2,3,0,1,2,3,0,1,2,3,0,1,2,3,0,1,2,3,0,1,2,3,0,1,2,3,0,1,2,3,0,1,2,3,0,1,2,3,0,1,2,3,0,1,2,3,0,1,2,3,0,1,2,3,0,1,2,3,0,1,2,3,0,1,2,3,0,1,2,3,0,1,2,3,0,1,2,3,0,1,2,3,0,1,2,3,0,1,2,3,0,1,2,3,0,1,2,3,0,1,2,3,0,1,2,3,0,1,2,3,0,1,2,3,0,1,2,3,0,1,2,3,0,1,2,3,0,1,2,3,0,1,2,3,0,1,2,3,0,1,2,3,0,1,2,3,0,1,2,3,0,1,2,3,0,1,2,3,0,1,2,3,0,1,2,3,0,1,2,3,0,1,2,3,0,1,2,3,0,1,2,3,0,1,2,3,0,1,2,3,0,1,2,3,0,1,2,3,0,1,2,3,0,1,2,3,0,1,2,3,0,1,2,3,0,1,2,3,0,1,2,3,0,1,2,3,0,1,2,3,0,1,2,3,0,1,2,3,0,1,2,3,0,1,2,3,0,1,2,3,0,1,2,3,0,1,2,3,0,1,2,3,0,1,2,3,0,1,2,3,0,1,2,3,0,1,2,3,0,1,2,3,0,1,2,3,0,1,2,3,0,1,2,3,0,1,2,3,0,1,2,3,0,1,2,3,0,1,2,3,0,1,2,3,0,1,2,3,0,1,2,3,0,1,2,3,0,1,2,3,0,1,2,3,0,1,2,3,0,1,2,3,0,1,2,3,0,1,2,3,0,1,2,3,0,1,2,3,0,1,2,3,0,1,2,3,0,1,2,3,0,1,2,3,0,1,2,3,0,1,2,3,0,1,2,3,0,1,2,3,0,1,2,3,0,1,2,3,0,1,2,3,0,1,2,3,0,1,2,3,0,1,2,3,0,1,2,3,0,1,2,3,0,1,2,3,0,1,2,3,0,1,2,3,0,1,2,3,0,1,2,3,0,1,2,3,0,1,2,3,0,1,2,3,0,1,2,3,0,1,2,3,0,1,2,3,0,1,2,3,0,1,2,3,0,1,2,3,0,1,2,3,0,1,2,3,0,1,2,3,0,1,2,3,0,1,2,3],"trees":[{"base_weights":[1.5842163E-8,-6.4638585E-1,6.5633994E-1,-4.0743172E-1,-6.665374E-2,1.9998284E-1,-6.666421E-2,-6.467661E-1,1.9948123E-1,-6.66175E-2,-5.731269E-1,1.805728E-1,-6.028489E-1,-6.1882354E-2,1.6615054E-1],"categories":[],"categories_nodes":[],"categories_segments":[],"categories_sizes":[],"default_left":[0,0,0,0,0,0,0,0,0,0,0,0,0,0,0],"id":0,"left_children":[1,3,5,7,-1,-1,-1,9,-1,-1,11,-1,13,-1,-1],"loss_changes":[4.6014773E4,2.6286133E2,9.5655375E4,2.4462322E3,0E0,0E0,0E0,5.1467285E0,0E0,0E0,5.864038E1,0E0,3.0135376E1,0E0,0E0],"parents":[2147483647,0,0,1,1,2,2,3,3,7,7,10,10,12,12],"right_children":[2,4,6,8,-1,-1,-1,10,-1,-1,12,-1,14,-1,-1],"split_conditions":[9.06E-3,5.02E2,1E0,3.481E-2,-6.665374E-2,1.9998284E-1,-6.666421E-2,3.63E-3,1.9948123E-1,-6.66175E-2,2.58496E0,1.805728E-1,8.4987E-1,-6.1882354E-2,1.6615054E-1],"split_indices":[0,1,7,4,0,0,0,0,0,0,2,0,3,0,0],"split_type":[0,0,0,0,0,0,0,0,0,0,0,0,0,0,0],"sum_hessian":[1.0845975E5,5.464425E4,5.38155E4,4.251519E3,5.039273E4,2.6700562E4,2.7114938E4,3.866984E3,3.8453497E2,3.054005E3,8.129789E2,9.294844E0,8.03684E2,7.987755E2,4.9085126E0],"tree_param":{"num_deleted":"0","num_feature":"8","num_nodes":"15","size_leaf_vector":"1"}},{"base_weights":[1.8790157E-8,1.8832912E0,-6.666261E-2,-6.6612914E-2,1.9998133E-1],"categories":[],"categories_nodes":[],"categories_segments":[],"categories_sizes":[],"default_left":[0,0,0,0,0],"id":1,"left_children":[1,3,-1,-1,-1],"loss_changes":[1.3616842E5,8.424633E3,0E0,0E0,0E0],"parents":[2147483647,0,0,1,1],"right_children":[2,4,-1,-1,-1],"split_conditions":[3.6E-4,3.507E-2,-6.666261E-2,-6.6612914E-2,1.9998133E-1],"split_indices":[0,3,0,0,0],"split_type":[0,0,0,0,0],"sum_hessian":[1.0845975E5,2.8354209E4,8.010554E4,1.2390897E3,2.711512E4],"tree_param":{"num_deleted":"0","num_feature":"8","num_nodes":"5","size_leaf_vector":"1"}},{"base_weights":[-3.7474457E-8,1.9567119E0,-6.666584E-2,-6.631719E-2,1.9748983E0,-6.524362E-2,1.9793302E0,1.6990418E0,1.999812E-1,1.9759822E0,-6.632777E-2,1.9777994E-1,-3.5641614E-2],"categories":[],"categories_nodes":[],"categories_segments":[],"categories_sizes":[],"default_left":[0,0,0,0,0,0,0,0,0,0,0,0,0],"id":2,"left_children":[1,3,-1,-1,5,-1,7,9,-1,11,-1,-1,-1],"loss_changes":[1.4148384E5,1.3145703E3,0E0,0E0,3.2002344E2,0E0,1.5347656E2,1.2231099E3,0E0,7.7905273E0,0E0,0E0,0E0],"parents":[2147483647,0,0,1,1,4,4,6,6,7,7,9,9],"right_children":[2,4,-1,-1,6,-1,8,10,-1,12,-1,-1,-1],"split_conditions":[8.4987E-1,1.3664805E-3,-6.666584E-2,-6.631719E-2,2.32193E0,-6.524362E-2,5.02E2,1E0,1.999812E-1,3.571E-2,-6.632777E-2,1.9777994E-1,-3.5641614E-2],"split_indices":[3,6,0,0,2,0,1,1,0,7,0,0,0],"split_type":[0,0,0,0,0,0,0,0,0,0,0,0,0],"sum_hessian":[1.0845975E5,2.7561611E4,8.089814E4,1.8976102E2,2.737185E4,4.58476E1,2.7326002E4,1.8665612E3,2.5459441E4,1.6708473E3,1.957139E2,1.6696985E3,1.1488008E0],"tree_param":{"num_deleted":"0","num_feature":"8","num_nodes":"13","size_leaf_vector":"1"}},{"base_weights":[1.62715E-9,-6.666585E-2,1.9999263E-1],"categories":[],"categories_nodes":[],"categories_segments":[],"categories_sizes":[],"default_left":[0,0,0],"id":3,"left_children":[1,-1,-1],"loss_changes":[1.4460856E5,0E0,0E0],"parents":[2147483647,0,0],"right_children":[2,-1,-1],"split_conditions":[1E0,-6.666585E-2,1.9999263E-1],"split_indices":[7,0,0],"split_type":[0,0,0],"sum_hessian":[1.0845975E5,8.134481E4,2.7114938E4],"tree_param":{"num_deleted":"0","num_feature":"8","num_nodes":"3","size_leaf_vector":"1"}},{"base_weights":[4.2288193E-6,-6.305506E-1,5.872974E-1,-3.9088622E-1,-6.511255E-2,1.6487782E-1,-6.5123364E-2,-6.308475E-1,1.6458134E-1,-6.507937E-2,-5.556224E-1,1.542859E-1,-5.8580095E-1,-6.0206305E-2,1.4269428E-1],"categories":[],"categories_nodes":[],"categories_segments":[],"categories_sizes":[],"default_left":[0,0,0,0,0,0,0,0,0,0,0,0,0,0,0],"id":4,"left_children":[1,3,5,7,-1,-1,-1,9,-1,-1,11,-1,13,-1,-1],"loss_changes":[3.9963316E4,2.5636523E2,7.345796E4,2.0131016E3,0E0,0E0,0E0,5.1657715E0,0E0,0E0,5.0229553E1,0E0,2.6015259E1,0E0,0E0],"parents":[2147483647,0,0,1,1,2,2,3,3,7,7,10,10,12,12],"right_children":[2,4,6,8,-1,-1,-1,10,-1,-1,12,-1,14,-1,-1],"split_conditions":[9.06E-3,5.02E2,1E0,3.481E-2,-6.511255E-2,1.6487782E-1,-6.5123364E-2,3.63E-3,1.6458134E-1,-6.507937E-2,2.58496E0,1.542859E-1,8.4987E-1,-6.0206305E-2,1.4269428E-1],"split_indices":[0,1,7,4,0,0,0,0,0,0,2,0,3,0,0],"split_type":[0,0,0,0,0,0,0,0,0,0,0,0,0,0,0],"sum_hessian":[1.0791347E5,5.2039992E4,5.5873477E4,4.1159307E3,4.7924062E4,3.0087072E4,2.5786406E4,3.6827268E3,4.3320374E2,2.9048467E3,7.7787994E2,1.0317569E1,7.675624E2,7.621058E2,5.4566135E0],"tree_param":{"num_deleted":"0","num_feature":"8","num_nodes":"15","size_leaf_vector":"1"}},{"base_weights":[-2.501916E-6,1.5633552E0,-6.5121815E-2,-6.507166E-2,1.6487664E-1],"categories":[],"categories_nodes":[],"categories_segments":[],"categories_sizes":[],"default_left":[0,0,0,0,0],"id":5,"left_children":[1,3,-1,-1,-1],"loss_changes":[1.0986715E5,6.002117E3,0E0,0E0,0E0],"parents":[2147483647,0,0,1,1],"right_children":[2,4,-1,-1,-1],"split_conditions":[3.6E-4,3.507E-2,-6.5121815E-2,-6.507166E-2,1.6487664E-1],"split_indices":[0,3,0,0,0],"split_type":[0,0,0,0,0],"sum_hessian":[1.0791372E5,3.1732607E4,7.618111E4,1.17842E3,3.0554188E4],"tree_param":{"num_deleted":"0","num_feature":"8","num_nodes":"5","size_leaf_vector":"1"}},{"base_weights":[8.369608E-7,1.6172968E0,-6.5125056E-2,-6.479642E-2,1.6306034E0,-6.36916E-2,1.6338415E0,1.6352515E0,-6.19959E-2,1.6364588E0,-6.1584927E-2,1.4619026E-1,1.6487674E-1],"categories":[],"categories_nodes":[],"categories_segments":[],"categories_sizes":[],"default_left":[0,0,0,0,0,0,0,0,0,0,0,0,0],"id":6,"left_children":[1,3,-1,-1,5,-1,7,9,-1,11,-1,-1,-1],"loss_changes":[1.1366404E5,9.3490625E2,0E0,0E0,2.2717969E2,0E0,9.8765625E1,8.453125E1,0E0,6.359375E1,0E0,0E0,0E0],"parents":[2147483647,0,0,1,1,4,4,6,6,7,7,9,9],"right_children":[2,4,-1,-1,6,-1,8,10,-1,12,-1,-1,-1],"split_conditions":[8.4987E-1,1.3664805E-3,-6.5125056E-2,-6.479642E-2,2.32193E0,-6.36916E-2,3.571E-2,9.06E-3,-6.19959E-2,5.02E2,-6.1584927E-2,1.4619026E-1,1.6487674E-1],"split_indices":[3,6,0,0,2,0,7,0,0,1,0,0,0],"split_type":[0,0,0,0,0,0,0,0,0,0,0,0,0],"sum_hessian":[1.0791378E5,3.0979309E4,7.693447E4,1.8063785E2,3.0798672E4,4.3640057E1,3.0755031E4,3.0736076E4,1.8954647E1,3.0719875E4,1.620154E1,2.0313677E3,2.8688508E4],"tree_param":{"num_deleted":"0","num_feature":"8","num_nodes":"13","size_leaf_vector":"1"}},{"base_weights":[-2.5721597E-6,-6.512516E-2,1.6488497E-1],"categories":[],"categories_nodes":[],"categories_segments":[],"categories_sizes":[],"default_left":[0,0,0],"id":7,"left_children":[1,-1,-1],"loss_changes":[1.1588128E5,0E0,0E0],"parents":[2147483647,0,0],"right_children":[2,-1,-1],"split_conditions":[1E0,-6.512516E-2,1.6488497E-1],"split_indices":[7,0,0],"split_type":[0,0,0],"sum_hessian":[1.07913664E5,7.73595E4,3.0554164E4],"tree_param":{"num_deleted":"0","num_feature":"8","num_nodes":"3","size_leaf_vector":"1"}},{"base_weights":[2.3120056E-5,-6.161127E-1,5.338451E-1,-3.7565386E-1,-6.371021E-2,1.4127319E-1,-6.372147E-2,-6.1674225E-1,1.4402144E-1,-6.370929E-2,-5.406863E-1,1.3519569E-1,-5.7112885E-1,-5.8756735E-2,1.2525807E-1],"categories":[],"categories_nodes":[],"categories_segments":[],"categories_sizes":[],"default_left":[0,0,0,0,0,0,0,0,0,0,0,0,0,0,0],"id":8,"left_children":[1,3,5,7,-1,-1,-1,9,-1,-1,11,-1,13,-1,-1],"loss_changes":[3.499024E4,2.4900586E2,5.8666094E4,1.7376132E3,0E0,0E0,0E0,5.0772705E0,0E0,0E0,4.37556E1,0E0,2.2767975E1,0E0,0E0],"parents":[2147483647,0,0,1,1,2,2,3,3,7,7,10,10,12,12],"right_children":[2,4,6,8,-1,-1,-1,10,-1,-1,12,-1,14,-1,-1],"split_conditions":[9.06E-3,5.02E2,1E0,3.481E-2,-6.371021E-2,1.4127319E-1,-6.372147E-2,3.63E-3,1.4402144E-1,-6.370929E-2,2.58496E0,1.3519569E-1,8.4987E-1,-5.8756735E-2,1.2525807E-1],"split_indices":[0,1,7,4,0,0,0,0,0,0,2,0,3,0,0],"split_type":[0,0,0,0,0,0,0,0,0,0,0,0,0,0,0],"sum_hessian":[1.0638142E5,4.9383258E4,5.6998164E4,3.9660747E3,4.5417184E4,3.2560857E4,2.4437307E4,3.5018086E3,4.6426624E2,2.756787E3,7.450214E2,1.1106553E1,7.3391486E2,7.280304E2,5.8844724E0],"tree_param":{"num_deleted":"0","num_feature":"8","num_nodes":"15","size_leaf_vector":"1"}},{"base_weights":[-1.789673E-5,1.3457468E0,-6.3720554E-2,-6.3669965E-2,1.4127238E-1],"categories":[],"categories_nodes":[],"categories_segments":[],"categories_sizes":[],"default_left":[0,0,0,0,0],"id":9,"left_children":[1,3,-1,-1,-1],"loss_changes":[9.122355E4,4.539824E3,0E0,0E0,0E0],"parents":[2147483647,0,0,1,1],"right_children":[2,4,-1,-1,-1],"split_conditions":[3.6E-4,3.507E-2,-6.3720554E-2,-6.3669965E-2,1.4127238E-1],"split_indices":[0,3,0,0,0],"split_type":[0,0,0,0,0],"sum_hessian":[1.0638056E5,3.418321E4,7.219736E4,1.1168599E3,3.306635E4],"tree_param":{"num_deleted":"0","num_feature":"8","num_nodes":"5","size_leaf_vector":"1"}},{"base_weights":[1.310163E-5,1.3878304E0,-6.372323E-2,-6.340972E-2,1.3982522E0,-6.2265195E-2,1.4007859E0,1.4018947E0,-6.0654487E-2,1.4028405E0,-6.010693E-2,1.2617244E-1,1.4127257E-1],"categories":[],"categories_nodes":[],"categories_segments":[],"categories_sizes":[],"default_left":[0,0,0,0,0,0,0,0,0,0,0,0,0],"id":10,"left_children":[1,3,-1,-1,5,-1,7,9,-1,11,-1,-1,-1],"loss_changes":[9.408814E4,7.0635156E2,0E0,0E0,1.7141406E2,0E0,7.488281E1,6.383203E1,0E0,4.457422E1,0E0,0E0,0E0],"parents":[2147483647,0,0,1,1,4,4,6,6,7,7,9,9],"right_children":[2,4,-1,-1,6,-1,8,10,-1,12,-1,-1,-1],"split_conditions":[8.4987E-1,1.3664805E-3,-6.372323E-2,-6.340972E-2,2.32193E0,-6.2265195E-2,3.571E-2,9.06E-3,-6.0654487E-2,5.02E2,-6.010693E-2,1.2617244E-1,1.4127257E-1],"split_indices":[3,6,0,0,2,0,7,0,0,1,0,0,0],"split_type":[0,0,0,0,0,0,0,0,0,0,0,0,0],"sum_hessian":[1.063868E5,3.3477355E4,7.2909445E4,1.7136484E2,3.3305992E4,4.139735E1,3.3264594E4,3.324653E4,1.8062593E1,3.323114E4,1.5392989E1,2.1838694E3,3.104727E4],"tree_param":{"num_deleted":"0","num_feature":"8","num_nodes":"13","size_leaf_vector":"1"}},{"base_weights":[-1.822891E-5,-6.372405E-2,1.4127924E-1],"categories":[],"categories_nodes":[],"categories_segments":[],"categories_sizes":[],"default_left":[0,0,0],"id":11,"left_children":[1,-1,-1],"loss_changes":[9.577333E4,0E0,0E0],"parents":[2147483647,0,0],"right_children":[2,-1,-1],"split_conditions":[1E0,-6.372405E-2,1.4127924E-1],"split_indices":[7,0,0],"split_type":[0,0,0],"sum_hessian":[1.0638038E5,7.3314E4,3.3066383E4],"tree_param":{"num_deleted":"0","num_feature":"8","num_nodes":"3","size_leaf_vector":"1"}},{"base_weights":[5.021376E-5,-6.0292155E-1,4.913477E-1,-3.6158776E-1,-6.243225E-2,1.24354735E-1,-6.244405E-2,-6.037287E-1,1.2897919E-1,-6.245729E-2,-5.265723E-1,1.2982836E-1,-5.559149E-1,-5.7207163E-2,1.1128076E-1],"categories":[],"categories_nodes":[],"categories_segments":[],"categories_sizes":[],"default_left":[0,0,0,0,0,0,0,0,0,0,0,0,0,0,0],"id":12,"left_children":[1,3,5,7,-1,-1,-1,9,-1,-1,11,-1,13,-1,-1],"loss_changes":[3.0812703E4,2.4096289E2,4.8104195E4,1.5227651E3,0E0,0E0,0E0,5.0108643E0,0E0,0E0,3.8876236E1,0E0,1.956279E1,0E0,0E0],"parents":[2147483647,0,0,1,1,2,2,3,3,7,7,10,10,12,12],"right_children":[2,4,6,8,-1,-1,-1,10,-1,-1,12,-1,14,-1,-1],"split_conditions":[9.06E-3,5.02E2,1E0,3.481E-2,-6.243225E-2,1.24354735E-1,-6.244405E-2,3.63E-3,1.2897919E-1,-6.245729E-2,8.544922E-4,1.2982836E-1,8.4987E-1,-5.7207163E-2,1.1128076E-1],"split_indices":[0,1,7,4,0,0,0,0,0,0,6,0,3,0,0],"split_type":[0,0,0,0,0,0,0,0,0,0,0,0,0,0,0],"sum_hessian":[1.04011164E5,4.6698117E4,5.7313047E4,3.805235E3,4.2892883E4,3.4234215E4,2.3078832E4,3.31918E3,4.8605524E2,2.607624E3,7.115558E2,1.0575974E1,7.0097986E2,6.949088E2,6.0710006E0],"tree_param":{"num_deleted":"0","num_feature":"8","num_nodes":"15","size_leaf_vector":"1"}},{"base_weights":[-3.8646063E-5,1.1885303E0,-6.2444E-2,-6.2392164E-2,1.2435409E-1],"categories":[],"categories_nodes":[],"categories_segments":[],"categories_sizes":[],"default_left":[0,0,0,0,0],"id":13,"left_children":[1,3,-1,-1,-1],"loss_changes":[7.7189734E4,3.5723203E3,0E0,0E0,0E0],"parents":[2147483647,0,0,1,1],"right_children":[2,4,-1,-1,-1],"split_conditions":[3.6E-4,3.507E-2,-6.2444E-2,-6.2392164E-2,1.2435409E-1],"split_indices":[0,3,0,0,0],"split_type":[0,0,0,0,0],"sum_hessian":[1.0400709E5,3.582056E4,6.818653E4,1.0548734E3,3.4765684E4],"tree_param":{"num_deleted":"0","num_feature":"8","num_nodes":"5","size_leaf_vector":"1"}},{"base_weights":[2.7914E-5,1.2227098E0,-6.2445875E-2,-6.2133726E-2,1.2312582E0,1.2333343E0,-6.1036926E-2,-5.903169E-2,1.2342393E0,1.2350255E0,-5.8916766E-2,1.1132418E-1,1.2435436E-1],"categories":[],"categories_nodes":[],"categories_segments":[],"categories_sizes":[],"default_left":[0,0,0,0,0,0,0,0,0,0,0,0,0],"id":14,"left_children":[1,3,-1,-1,5,7,-1,-1,9,11,-1,-1,-1],"loss_changes":[7.942919E4,5.5515234E2,0E0,0E0,1.3460547E2,5.844922E1,0E0,0E0,5.0828125E1,3.486328E1,0E0,0E0,0E0],"parents":[2147483647,0,0,1,1,4,4,5,5,8,8,9,9],"right_children":[2,4,-1,-1,6,8,-1,-1,10,12,-1,-1,-1],"split_conditions":[8.4987E-1,1.3664805E-3,-6.2445875E-2,-6.2133726E-2,9.06E-3,2.32193E0,-6.1036926E-2,-5.903169E-2,3.571E-2,5.02E2,-5.8916766E-2,1.1132418E-1,1.2435436E-1],"split_indices":[3,6,0,0,0,2,0,0,7,1,0,0,0],"split_type":[0,0,0,0,0,0,0,0,0,0,0,0,0],"sum_hessian":[1.0402439E5,3.516801E4,6.885638E4,1.6194344E2,3.500607E4,3.496698E4,3.9091312E1,1.702139E1,3.4949957E4,3.493522E4,1.4740021E1,2.2923806E3,3.2642836E4],"tree_param":{"num_deleted":"0","num_feature":"8","num_nodes":"13","size_leaf_vector":"1"}},{"base_weights":[-3.93671E-5,-6.244768E-2,1.24360204E-1],"categories":[],"categories_nodes":[],"categories_segments":[],"categories_sizes":[],"default_left":[0,0,0],"id":15,"left_children":[1,-1,-1],"loss_changes":[8.0770695E4,0E0,0E0],"parents":[2147483647,0,0],"right_children":[2,-1,-1],"split_conditions":[1E0,-6.244768E-2,1.24360204E-1],"split_indices":[7,0,0],"split_type":[0,0,0],"sum_hessian":[1.0400671E5,6.9241016E4,3.47657E4],"tree_param":{"num_deleted":"0","num_feature":"8","num_nodes":"3","size_leaf_vector":"1"}},{"base_weights":[8.446722E-5,-5.9085745E-1,4.5689142E-1,-3.4849072E-1,-6.126781E-2,1.11684196E-1,-6.1280288E-2,-5.9168977E-1,1.17579214E-1,-6.1313756E-2,-5.1311415E-1,1.1332897E-1,-5.4414177E-1,-5.6076556E-2,1.0121687E-1],"categories":[],"categories_nodes":[],"categories_segments":[],"categories_sizes":[],"default_left":[0,0,0,0,0,0,0,0,0,0,0,0,0,0,0],"id":16,"left_children":[1,3,5,7,-1,-1,-1,9,-1,-1,11,-1,13,-1,-1],"loss_changes":[2.7250031E4,2.3254492E2,4.019347E4,1.3491167E3,0E0,0E0,0E0,4.9732666E0,0E0,0E0,3.529872E1,0E0,1.782515E1,0E0,0E0],"parents":[2147483647,0,0,1,1,2,2,3,3,7,7,10,10,12,12],"right_children":[2,4,6,8,-1,-1,-1,10,-1,-1,12,-1,14,-1,-1],"split_conditions":[9.06E-3,5.02E2,1E0,3.481E-2,-6.126781E-2,1.11684196E-1,-6.1280288E-2,3.63E-3,1.17579214E-1,-6.1313756E-2,2.58496E0,1.1332897E-1,8.4987E-1,-5.6076556E-2,1.0121687E-1],"split_indices":[0,1,7,4,0,0,0,0,0,0,2,0,3,0,0],"split_type":[0,0,0,0,0,0,0,0,0,0,0,0,0,0,0],"sum_hessian":[1.00944086E5,4.4010383E4,5.6933703E4,3.636459E3,4.0373926E4,3.5210473E4,2.172323E4,3.136623E3,4.9983582E2,2.4587E3,6.779231E2,1.1882486E1,6.660406E2,6.5963434E2,6.4062386E0],"tree_param":{"num_deleted":"0","num_feature":"8","num_nodes":"15","size_leaf_vector":"1"}},{"base_weights":[-6.410268E-5,1.070099E0,-6.1281156E-2,-6.122743E-2,1.11683644E-1],"categories":[],"categories_nodes":[],"categories_segments":[],"categories_sizes":[],"default_left":[0,0,0,0,0],"id":17,"left_children":[1,3,-1,-1,-1],"loss_changes":[6.6188375E4,2.890418E3,0E0,0E0,0E0],"parents":[2147483647,0,0,1,1],"right_children":[2,4,-1,-1,-1],"split_conditions":[3.6E-4,3.507E-2,-6.1281156E-2,-6.122743E-2,1.11683644E-1],"split_indices":[0,3,0,0,0],"split_type":[0,0,0,0,0],"sum_hessian":[1.0093497E5,3.6750137E4,6.4184832E4,9.9301935E2,3.5757117E4],"tree_param":{"num_deleted":"0","num_feature":"8","num_nodes":"5","size_leaf_vector":"1"}},{"base_weights":[4.470745E-5,1.0986522E0,-6.1282165E-2,-6.0943313E-2,1.1058986E0,-5.975185E-2,1.107663E0,1.1084428E0,-5.824219E-2,1.1091022E0,-5.7404168E-2,9.987009E-2,1.11684024E-1],"categories":[],"categories_nodes":[],"categories_segments":[],"categories_sizes":[],"default_left":[0,0,0,0,0,0,0,0,0,0,0,0,0],"id":18,"left_children":[1,3,-1,-1,5,-1,7,9,-1,11,-1,-1,-1],"loss_changes":[6.79825E4,4.481914E2,0E0,0E0,1.0887109E2,0E0,4.8046875E1,4.051953E1,0E0,2.9582031E1,0E0,0E0,0E0],"parents":[2147483647,0,0,1,1,4,4,6,6,7,7,9,9],"right_children":[2,4,-1,-1,6,-1,8,10,-1,12,-1,-1,-1],"split_conditions":[8.4987E-1,1.3664805E-3,-6.1282165E-2,-6.0943313E-2,2.32193E0,-5.975185E-2,3.571E-2,9.06E-3,-5.824219E-2,5.02E2,-5.7404168E-2,9.987009E-2,1.11684024E-1],"split_indices":[3,6,0,0,2,0,7,0,0,1,0,0,0],"split_type":[0,0,0,0,0,0,0,0,0,0,0,0,0],"sum_hessian":[1.00967164E5,3.615532E4,6.4811844E4,1.5238579E2,3.6002938E4,3.6903957E1,3.596603E4,3.594979E4,1.6242012E1,3.5936047E4,1.3743731E1,2.3623137E3,3.3573734E4],"tree_param":{"num_deleted":"0","num_feature":"8","num_nodes":"13","size_leaf_vector":"1"}},{"base_weights":[-6.5118395E-5,-6.128505E-2,1.11689486E-1],"categories":[],"categories_nodes":[],"categories_segments":[],"categories_sizes":[],"default_left":[0,0,0],"id":19,"left_children":[1,-1,-1],"loss_changes":[6.908655E4,0E0,0E0],"parents":[2147483647,0,0],"right_children":[2,-1,-1],"split_conditions":[1E0,-6.128505E-2,1.11689486E-1],"split_indices":[7,0,0],"split_type":[0,0,0],"sum_hessian":[1.0093432E5,6.5177285E4,3.575704E4],"tree_param":{"num_deleted":"0","num_feature":"8","num_nodes":"3","size_leaf_vector":"1"}},{"base_weights":[1.2539858E-4,-5.7982266E-1,4.2852622E-1,-3.3623436E-1,-6.0207646E-2,1.01885416E-1,-6.0220897E-2,-5.8057827E-1,1.0871034E0,-6.0270317E-2,-5.0039095E-1,1.0069249E-1,1.125598E0,1.041063E-1,-5.3149766E-1,1.1605965E-1,9.998754E-2,-5.4814965E-2,9.273536E-2],"categories":[],"categories_nodes":[],"categories_segments":[],"categories_sizes":[],"default_left":[0,0,0,0,0,0,0,0,0,0,0,0,0,0,0,0,0,0,0],"id":20,"left_children":[1,3,5,7,-1,-1,-1,9,11,-1,13,-1,15,-1,17,-1,-1,-1,-1],"loss_changes":[2.417856E4,2.2392383E2,3.4057875E4,1.2051248E3,0E0,0E0,0E0,4.9437256E0,4.338379E-1,0E0,3.149234E1,0E0,3.1176758E-1,0E0,1.5889038E1,0E0,0E0,0E0,0E0],"parents":[2147483647,0,0,1,1,2,2,3,3,7,7,8,8,10,10,12,12,14,14],"right_children":[2,4,6,8,-1,-1,-1,10,12,-1,14,-1,16,-1,18,-1,-1,-1,-1],"split_conditions":[9.06E-3,5.02E2,1E0,3.481E-2,-6.0207646E-2,1.01885416E-1,-6.0220897E-2,3.63E-3,1.191082E-3,-6.0270317E-2,2.58496E0,1.0069249E-1,8.4987E-1,1.041063E-1,8.4987E-1,1.1605965E-1,9.998754E-2,-5.4814965E-2,9.273536E-2],"split_indices":[0,1,7,4,0,0,0,0,6,0,2,0,3,0,3,0,0,0,0],"split_type":[0,0,0,0,0,0,0,0,0,0,0,0,0,0,0,0,0,0,0],"sum_hessian":[9.7315516E4,4.1344715E4,5.5970805E4,3.4623389E3,3.7882375E4,3.558843E4,2.0382375E4,2.9555522E3,5.0678656E2,2.3113118E3,6.4424054E2,1.7319783E2,3.3358875E2,1.2101444E1,6.321391E2,2.5450763E2,7.908111E1,6.256222E2,6.516877E0],"tree_param":{"num_deleted":"0","num_feature":"8","num_nodes":"19","size_leaf_vector":"1"}},{"base_weights":[-9.370196E-5,9.7810143E-1,-6.0222726E-2,-6.016652E-2,1.0188488E-1],"categories":[],"categories_nodes":[],"categories_segments":[],"categories_sizes":[],"default_left":[0,0,0,0,0],"id":21,"left_children":[1,3,-1,-1,-1],"loss_changes":[5.731128E4,2.3871016E3,0E0,0E0,0E0],"parents":[2147483647,0,0,1,1],"right_children":[2,4,-1,-1,-1],"split_conditions":[3.6E-4,3.507E-2,-6.0222726E-2,-6.016652E-2,1.0188488E-1],"split_indices":[0,3,0,0,0],"split_type":[0,0,0,0,0],"sum_hessian":[9.730001E4,3.707281E4,6.0227195E4,9.3183887E2,3.614097E4],"tree_param":{"num_deleted":"0","num_feature":"8","num_nodes":"5","size_leaf_vector":"1"}},{"base_weights":[6.3313666E-5,1.0024434E0,-6.022284E-2,-5.986861E-2,1.0087488E0,1.0102849E0,-5.869564E-2,-5.656294E-2,1.010954E0,1.0115421E0,-5.666547E-2,9.07731E-2,1.0188533E-1],"categories":[],"categories_nodes":[],"categories_segments":[],"categories_sizes":[],"default_left":[0,0,0,0,0,0,0,0,0,0,0,0,0],"id":22,"left_children":[1,3,-1,-1,5,7,-1,-1,9,11,-1,-1,-1],"loss_changes":[5.8773887E4,3.694922E2,0E0,0E0,8.980859E1,3.891797E1,0E0,0E0,3.429297E1,2.6652344E1,0E0,0E0,0E0],"parents":[2147483647,0,0,1,1,4,4,5,5,8,8,9,9],"right_children":[2,4,-1,-1,6,8,-1,-1,10,12,-1,-1,-1],"split_conditions":[8.4987E-1,1.3664805E-3,-6.022284E-2,-5.986861E-2,9.06E-3,2.32193E0,-5.869564E-2,-5.656294E-2,3.571E-2,5.02E2,-5.666547E-2,9.07731E-2,1.0188533E-1],"split_indices":[3,6,0,0,0,2,0,0,7,1,0,0,0],"split_type":[0,0,0,0,0,0,0,0,0,0,0,0,0],"sum_hessian":[9.735003E4,3.6538758E4,6.0811273E4,1.4295668E2,3.63958E4,3.6361164E4,3.463702E1,1.5074297E1,3.634609E4,3.6332906E4,1.3185378E1,2.3987407E3,3.3934164E4],"tree_param":{"num_deleted":"0","num_feature":"8","num_nodes":"13","size_leaf_vector":"1"}},{"base_weights":[-9.510187E-5,-6.0226865E-2,1.0189068E-1],"categories":[],"categories_nodes":[],"categories_segments":[],"categories_sizes":[],"default_left":[0,0,0],"id":23,"left_children":[1,-1,-1],"loss_changes":[5.9705504E4,0E0,0E0],"parents":[2147483647,0,0],"right_children":[2,-1,-1],"split_conditions":[1E0,-6.0226865E-2,1.0189068E-1],"split_indices":[7,0,0],"split_type":[0,0,0],"sum_hessian":[9.7299086E4,6.1158324E4,3.614076E4],"tree_param":{"num_deleted":"0","num_feature":"8","num_nodes":"3","size_leaf_vector":"1"}},{"base_weights":[1.739048E-4,-5.697169E-1,4.0488595E-1,-3.2461143E-1,-5.924332E-2,9.41194E-2,-5.9257478E-2,-5.702963E-1,1.016368E0,-5.931918E-2,-4.8825604E-1,9.311666E-2,1.0572149E0,1.02707766E-1,-5.1815706E-1,1.09398715E-1,9.248999E-2,-5.343747E-2,8.536356E-2],"categories":[],"categories_nodes":[],"categories_segments":[],"categories_sizes":[],"default_left":[0,0,0,0,0,0,0,0,0,0,0,0,0,0,0,0,0,0,0],"id":24,"left_children":[1,3,5,7,-1,-1,-1,9,11,-1,13,-1,15,-1,17,-1,-1,-1,-1],"loss_changes":[2.1508588E4,2.1542676E2,2.9171352E4,1.0834521E3,0E0,0E0,0E0,4.9294434E0,7.880249E-1,0E0,2.825679E1,0E0,6.272278E-1,0E0,1.38203125E1,0E0,0E0,0E0,0E0],"parents":[2147483647,0,0,1,1,2,2,3,3,7,7,8,8,10,10,12,12,14,14],"right_children":[2,4,6,8,-1,-1,-1,10,12,-1,14,-1,16,-1,18,-1,-1,-1,-1],"split_conditions":[9.06E-3,5.02E2,1E0,3.481E-2,-5.924332E-2,9.41194E-2,-5.9257478E-2,3.63E-3,1.191082E-3,-5.931918E-2,8.544922E-4,9.311666E-2,8.4987E-1,1.02707766E-1,8.4987E-1,1.09398715E-1,9.248999E-2,-5.343747E-2,8.536356E-2],"split_indices":[0,1,7,4,0,0,0,0,6,0,6,0,3,0,3,0,0,0,0],"split_type":[0,0,0,0,0,0,0,0,0,0,0,0,0,0,0,0,0,0,0],"sum_hessian":[9.325344E4,3.8724105E4,5.452933E4,3.2858262E3,3.5438277E4,3.546227E4,1.906706E4,2.7775227E3,5.0830353E2,2.166636E3,6.108867E2,1.7243063E2,3.358729E2,1.1175626E1,5.997111E2,2.5714154E2,7.873136E1,5.933074E2,6.4037514E0],"tree_param":{"num_deleted":"0","num_feature":"8","num_nodes":"19","size_leaf_vector":"1"}},{"base_weights":[-1.2831195E-4,9.049342E-1,-5.9260268E-2,-5.920098E-2,9.411886E-2],"categories":[],"categories_nodes":[],"categories_segments":[],"categories_sizes":[],"default_left":[0,0,0,0,0],"id":25,"left_children":[1,3,-1,-1,-1],"loss_changes":[4.9993594E4,2.002373E3,0E0,0E0,0E0],"parents":[2147483647,0,0,1,1],"right_children":[2,4,-1,-1,-1],"split_conditions":[3.6E-4,3.507E-2,-5.9260268E-2,-5.920098E-2,9.411886E-2],"split_indices":[0,3,0,0,0],"split_type":[0,0,0,0,0],"sum_hessian":[9.323026E4,3.6884715E4,5.634554E4,8.7182324E2,3.6012895E4],"tree_param":{"num_deleted":"0","num_feature":"8","num_nodes":"5","size_leaf_vector":"1"}},{"base_weights":[8.4424035E-5,9.2600286E-1,-5.9259545E-2,-5.8911502E-2,9.316114E-1,9.3297744E-1,-5.7649583E-2,8.1843513E-1,9.411937E-2,9.6034646E-1,-7.0283726E-2,9.610876E-2,-3.340378E-2],"categories":[],"categories_nodes":[],"categories_segments":[],"categories_sizes":[],"default_left":[0,0,0,0,0,0,0,0,0,0,0,0,0],"id":26,"left_children":[1,3,-1,-1,5,7,-1,9,-1,11,-1,-1,-1],"loss_changes":[5.120171E4,3.0998242E2,0E0,0E0,7.52793E1,3.334375E1,0E0,5.2608594E2,0E0,2.456543E0,0E0,0E0,0E0],"parents":[2147483647,0,0,1,1,4,4,5,5,7,7,9,9],"right_children":[2,4,-1,-1,6,8,-1,10,-1,12,-1,-1,-1],"split_conditions":[8.4987E-1,1.3664805E-3,-5.9259545E-2,-5.8911502E-2,9.06E-3,5.02E2,-5.7649583E-2,1E0,9.411937E-2,3.571E-2,-7.0283726E-2,9.610876E-2,-3.340378E-2],"split_indices":[3,6,0,0,0,1,0,1,0,7,0,0,0],"split_type":[0,0,0,0,0,0,0,0,0,0,0,0,0],"sum_hessian":[9.3300125E4,3.6413035E4,5.688709E4,1.3391104E2,3.6279125E4,3.6246676E4,3.2449677E1,2.432744E3,3.381393E4,2.2255068E3,2.0723691E2,2.2244907E3,1.0160234E0],"tree_param":{"num_deleted":"0","num_feature":"8","num_nodes":"13","size_leaf_vector":"1"}},{"base_weights":[-1.300561E-4,-5.926468E-2,9.412479E-2],"categories":[],"categories_nodes":[],"categories_segments":[],"categories_sizes":[],"default_left":[0,0,0],"id":27,"left_children":[1,-1,-1],"loss_changes":[5.200261E4,0E0,0E0],"parents":[2147483647,0,0],"right_children":[2,-1,-1],"split_conditions":[1E0,-5.926468E-2,9.412479E-2],"split_indices":[7,0,0],"split_type":[0,0,0],"sum_hessian":[9.322904E4,5.7216516E4,3.6012523E4],"tree_param":{"num_deleted":"0","num_feature":"8","num_nodes":"3","size_leaf_vector":"1"}},{"base_weights":[1.7672284E-4,-5.606724E-1,3.84982E-1,-3.1559402E-1,-5.836698E-2,8.7844394E-2,-5.8382154E-2,-5.603288E-1,9.387983E-1,-5.8431108E-2,-4.7512606E-1,8.6977236E-2,9.70924E-1,4.3017134E-2,-5.659803E-1,9.9945776E-2,8.640174E-2,1.2490779E-1,-2.7327014E-2,-5.7273716E-2,6.364288E-2],"categories":[],"categories_nodes":[],"categories_segments":[],"categories_sizes":[],"default_left":[0,0,0,0,0,0,0,0,0,0,0,0,0,0,0,0,0,0,0,0,0],"id":28,"left_children":[1,3,5,7,-1,-1,-1,9,11,-1,13,-1,15,17,19,-1,-1,-1,-1,-1,-1],"loss_changes":[1.9180053E4,2.0363965E2,2.519849E4,9.5359924E2,0E0,0E0,0E0,5.0317383E0,2.8024292E-1,0E0,2.714331E1,0E0,1.6601562E-1,3.3479626E1,4.3471527E0,0E0,0E0,0E0,0E0,0E0,0E0],"parents":[2147483647,0,0,1,1,2,2,3,3,7,7,8,8,10,10,12,12,13,13,14,14],"right_children":[2,4,6,8,-1,-1,-1,10,12,-1,14,-1,16,18,20,-1,-1,-1,-1,-1,-1],"split_conditions":[9.06E-3,5.02E2,1E0,3.481E-2,-5.836698E-2,8.7844394E-2,-5.8382154E-2,3.63E-3,1.191082E-3,-5.8431108E-2,3E0,8.6977236E-2,8.4987E-1,2.8297424E-1,8.4987E-1,9.9945776E-2,8.640174E-2,1.2490779E-1,-2.7327014E-2,-5.7273716E-2,6.364288E-2],"split_indices":[0,1,7,4,0,0,0,0,6,0,2,0,3,6,3,0,0,0,0,0,0],"split_type":[0,0,0,0,0,0,0,0,0,0,0,0,0,0,0,0,0,0,0,0,0],"sum_hessian":[8.886954E4,3.616257E4,5.2706973E4,3.10354E3,3.305903E4,3.492033E4,1.7786643E4,2.5973455E3,5.0619464E2,2.0222716E3,5.750739E2,1.6968346E2,3.3651117E2,8.5871864E1,4.8920206E2,2.5902716E2,7.748402E1,1.7228245E1,6.864362E1,4.8698914E2,2.212916E0],"tree_param":{"num_deleted":"0","num_feature":"8","num_nodes":"21","size_leaf_vector":"1"}},{"base_weights":[-1.3974556E-4,8.456516E-1,-5.8384646E-2,-5.832196E-2,8.784387E-2],"categories":[],"categories_nodes":[],"categories_segments":[],"categories_sizes":[],"default_left":[0,0,0,0,0],"id":29,"left_children":[1,3,-1,-1,-1],"loss_changes":[4.38609E4,1.7000332E3,0E0,0E0,0E0],"parents":[2147483647,0,0,1,1],"right_children":[2,4,-1,-1,-1],"split_conditions":[3.6E-4,3.507E-2,-5.8384646E-2,-5.832196E-2,8.784387E-2],"split_indices":[0,3,0,0,0],"split_type":[0,0,0,0,0],"sum_hessian":[8.884024E4,3.6275938E4,5.256431E4,8.133446E2,3.5462594E4],"tree_param":{"num_deleted":"0","num_feature":"8","num_nodes":"5","size_leaf_vector":"1"}},{"base_weights":[1.0486074E-4,8.6440974E-1,-5.8384366E-2,-5.8019366E-2,8.694809E-1,8.707166E-1,-5.6680083E-2,7.632124E-1,8.7844424E-2,8.919878E-1,-6.796886E-2,8.9271486E-2,-3.379857E-2],"categories":[],"categories_nodes":[],"categories_segments":[],"categories_sizes":[],"default_left":[0,0,0,0,0,0,0,0,0,0,0,0,0],"id":30,"left_children":[1,3,-1,-1,5,7,-1,9,-1,11,-1,-1,-1],"loss_changes":[4.487992E4,2.6316797E2,0E0,0E0,6.3904297E1,2.8990234E1,0E0,4.4685474E2,0E0,2.2740479E0,0E0,0E0,0E0],"parents":[2147483647,0,0,1,1,4,4,5,5,7,7,9,9],"right_children":[2,4,-1,-1,6,8,-1,10,-1,12,-1,-1,-1],"split_conditions":[8.4987E-1,1.3664805E-3,-5.8384366E-2,-5.8019366E-2,9.06E-3,5.02E2,-5.6680083E-2,1E0,8.7844424E-2,3.571E-2,-6.796886E-2,8.9271486E-2,-3.379857E-2],"split_indices":[3,6,0,0,0,1,0,1,0,7,0,0,0],"split_type":[0,0,0,0,0,0,0,0,0,0,0,0,0],"sum_hessian":[8.892028E4,3.5853246E4,5.3067035E4,1.2502303E2,3.5728223E4,3.5697906E4,3.0318644E1,2.4006372E3,3.3297266E4,2.2042915E3,1.963458E2,2.2032632E3,1.0282321E0],"tree_param":{"num_deleted":"0","num_feature":"8","num_nodes":"13","size_leaf_vector":"1"}},{"base_weights":[-1.4202898E-4,-5.8389377E-2,8.785001E-2],"categories":[],"categories_nodes":[],"categories_segments":[],"categories_sizes":[],"default_left":[0,0,0],"id":31,"left_children":[1,-1,-1],"loss_changes":[4.5567195E4,0E0,0E0],"parents":[2147483647,0,0],"right_children":[2,-1,-1],"split_conditions":[1E0,-5.8389377E-2,8.785001E-2],"split_indices":[7,0,0],"split_type":[0,0,0],"sum_hessian":[8.883872E4,5.3376684E4,3.5462035E4],"tree_param":{"num_deleted":"0","num_feature":"8","num_nodes":"3","size_leaf_vector":"1"}},{"base_weights":[1.8068288E-4,-5.5246174E-1,3.6808023E-1,-3.0748668E-1,-5.757123E-2,8.269458E-2,-5.758757E-2,-5.5114865E-1,8.761697E-2,-5.7623994E-2,-4.6275362E-1,5.26108E-2,-5.561826E-1,1.1684581E-1,-2.5383467E-2,-5.6303788E-2,6.0029842E-2],"categories":[],"categories_nodes":[],"categories_segments":[],"categories_sizes":[],"default_left":[0,0,0,0,0,0,0,0,0,0,0,0,0,0,0,0,0],"id":32,"left_children":[1,3,5,7,-1,-1,-1,9,-1,-1,11,13,15,-1,-1,-1,-1],"loss_changes":[1.7134432E4,1.9166113E2,2.1915102E4,8.4313074E2,0E0,0E0,0E0,5.1085205E0,0E0,0E0,2.607396E1,2.8994244E1,3.968872E0,0E0,0E0,0E0,0E0],"parents":[2147483647,0,0,1,1,2,2,3,3,7,7,10,10,11,11,12,12],"right_children":[2,4,6,8,-1,-1,-1,10,-1,-1,12,14,16,-1,-1,-1,-1],"split_conditions":[9.06E-3,5.02E2,1E0,3.481E-2,-5.757123E-2,8.269458E-2,-5.758757E-2,3.63E-3,8.761697E-2,-5.7623994E-2,3E0,2.8297424E-1,8.4987E-1,1.1684581E-1,-2.5383467E-2,-5.6303788E-2,6.0029842E-2],"split_indices":[0,1,7,4,0,0,0,0,0,0,2,6,3,0,0,0,0],"split_type":[0,0,0,0,0,0,0,0,0,0,0,0,0,0,0,0,0],"sum_hessian":[8.42725E4,3.3679754E4,5.0592746E4,2.9206807E3,3.0759074E4,3.4043844E4,1.65489E4,2.4225251E3,4.9815533E2,1.8826176E3,5.399077E2,8.292443E1,4.5698328E2,1.7260725E1,6.5663704E1,4.548005E2,2.1827703E0],"tree_param":{"num_deleted":"0","num_feature":"8","num_nodes":"17","size_leaf_vector":"1"}},{"base_weights":[-1.5010966E-4,7.9688823E-1,-5.758969E-2,-5.7523172E-2,8.2694046E-2],"categories":[],"categories_nodes":[],"categories_segments":[],"categories_sizes":[],"default_left":[0,0,0,0,0],"id":33,"left_children":[1,3,-1,-1,-1],"loss_changes":[3.865717E4,1.457334E3,0E0,0E0,0E0],"parents":[2147483647,0,0,1,1],"right_children":[2,4,-1,-1,-1],"split_conditions":[3.6E-4,3.507E-2,-5.758969E-2,-5.7523172E-2,8.2694046E-2],"split_indices":[0,3,0,0,0],"split_type":[0,0,0,0,0],"sum_hessian":[8.423819E4,3.532938E4,4.890881E4,7.5681195E2,3.4572566E4],"tree_param":{"num_deleted":"0","num_feature":"8","num_nodes":"5","size_leaf_vector":"1"}},{"base_weights":[1.2213038E-4,8.138224E-1,-5.7589944E-2,-5.7195373E-2,8.1846774E-1,8.19601E-1,-5.5779207E-2,7.176449E-1,8.269461E-2,8.359583E-1,-6.594624E-2,8.3666585E-2,-3.353146E-2],"categories":[],"categories_nodes":[],"categories_segments":[],"categories_sizes":[],"default_left":[0,0,0,0,0,0,0,0,0,0,0,0,0],"id":34,"left_children":[1,3,-1,-1,5,7,-1,9,-1,11,-1,-1,-1],"loss_changes":[3.9525426E4,2.2547461E2,0E0,0E0,5.4791016E1,2.547461E1,0E0,3.8290503E2,0E0,2.0716553E0,0E0,0E0,0E0],"parents":[2147483647,0,0,1,1,4,4,5,5,7,7,9,9],"right_children":[2,4,-1,-1,6,8,-1,10,-1,12,-1,-1,-1],"split_conditions":[8.4987E-1,1.3664805E-3,-5.7589944E-2,-5.7195373E-2,9.06E-3,5.02E2,-5.5779207E-2,1E0,8.269461E-2,3.571E-2,-6.594624E-2,8.3666585E-2,-3.353146E-2],"split_indices":[3,6,0,0,0,1,0,1,0,7,0,0,0],"split_type":[0,0,0,0,0,0,0,0,0,0,0,0,0],"sum_hessian":[8.4326305E4,3.495198E4,4.9374324E4,1.1636486E2,3.4835617E4,3.480736E4,2.8256968E1,2.3457312E3,3.2461629E4,2.1605054E3,1.8522574E2,2.1594866E3,1.0187979E0],"tree_param":{"num_deleted":"0","num_feature":"8","num_nodes":"13","size_leaf_vector":"1"}},{"base_weights":[-1.5295045E-4,-5.7594787E-2,8.270048E-2],"categories":[],"categories_nodes":[],"categories_segments":[],"categories_sizes":[],"default_left":[0,0,0],"id":35,"left_children":[1,-1,-1],"loss_changes":[4.012047E4,0E0,0E0],"parents":[2147483647,0,0],"right_children":[2,-1,-1],"split_conditions":[1E0,-5.7594787E-2,8.270048E-2],"split_indices":[7,0,0],"split_type":[0,0,0],"sum_hessian":[8.4236336E4,4.9664535E4,3.45718E4],"tree_param":{"num_deleted":"0","num_feature":"8","num_nodes":"3","size_leaf_vector":"1"}},{"base_weights":[1.8538091E-4,-5.450121E-1,3.5362244E-1,-3.001896E-1,-5.6849148E-2,7.8413695E-2,-5.6866802E-2,-5.426231E-1,8.249774E-2,-5.6890827E-2,-4.508205E-1,6.247708E-2,-5.4702723E-1,1.1046614E-1,-2.3421457E-2,-5.5398095E-2,5.6810796E-2],"categories":[],"categories_nodes":[],"categories_segments":[],"categories_sizes":[],"default_left":[0,0,0,0,0,0,0,0,0,0,0,0,0,0,0,0,0],"id":36,"left_children":[1,3,5,7,-1,-1,-1,9,-1,-1,11,13,15,-1,-1,-1,-1],"loss_changes":[1.53301455E4,1.7969434E2,1.9165352E4,7.479594E2,0E0,0E0,0E0,5.1853027E0,0E0,0E0,2.506131E1,2.5271421E1,3.6250916E0,0E0,0E0,0E0,0E0],"parents":[2147483647,0,0,1,1,2,2,3,3,7,7,10,10,11,11,12,12],"right_children":[2,4,6,8,-1,-1,-1,10,-1,-1,12,14,16,-1,-1,-1,-1],"split_conditions":[9.06E-3,5.02E2,1E0,3.481E-2,-5.6849148E-2,7.8413695E-2,-5.6866802E-2,3.63E-3,8.249774E-2,-5.6890827E-2,3E0,2.8297424E-1,8.4987E-1,1.1046614E-1,-2.3421457E-2,-5.5398095E-2,5.6810796E-2],"split_indices":[0,1,7,4,0,0,0,0,0,0,2,6,3,0,0,0,0],"split_type":[0,0,0,0,0,0,0,0,0,0,0,0,0,0,0,0,0],"sum_hessian":[7.955536E4,3.1289273E4,4.826609E4,2.739365E3,2.8549908E4,3.2906066E4,1.5360022E4,2.2541858E3,4.8517917E2,1.7483861E3,5.0579977E2,7.989293E1,4.2590683E2,1.710061E1,6.279232E1,4.2376755E2,2.1392865E0],"tree_param":{"num_deleted":"0","num_feature":"8","num_nodes":"17","size_leaf_vector":"1"}},{"base_weights":[-1.5907342E-4,7.562761E-1,-5.686849E-2,-5.679766E-2,7.8413114E-2],"categories":[],"categories_nodes":[],"categories_segments":[],"categories_sizes":[],"default_left":[0,0,0,0,0],"id":37,"left_children":[1,3,-1,-1,-1],"loss_changes":[3.419738E4,1.2590605E3,0E0,0E0,0E0],"parents":[2147483647,0,0,1,1],"right_children":[2,4,-1,-1,-1],"split_conditions":[3.6E-4,3.507E-2,-5.686849E-2,-5.679766E-2,7.8413114E-2],"split_indices":[0,3,0,0,0],"split_type":[0,0,0,0,0],"sum_hessian":[7.9517016E4,3.411971E4,4.53973E4,7.025086E2,3.3417203E4],"tree_param":{"num_deleted":"0","num_feature":"8","num_nodes":"5","size_leaf_vector":"1"}},{"base_weights":[1.3602438E-4,7.717278E-1,-5.686931E-2,-5.6426E-2,7.7602357E-1,7.7707475E-1,-5.4939386E-2,6.792945E-1,7.841372E-2,7.893598E-1,-6.422292E-2,7.900569E-2,-3.323881E-2],"categories":[],"categories_nodes":[],"categories_segments":[],"categories_sizes":[],"default_left":[0,0,0,0,0,0,0,0,0,0,0,0,0],"id":38,"left_children":[1,3,-1,-1,5,7,-1,9,-1,11,-1,-1,-1],"loss_changes":[3.494268E4,1.9433398E2,0E0,0E0,4.734961E1,2.2705078E1,0E0,3.3130908E2,0E0,1.9046631E0,0E0,0E0,0E0],"parents":[2147483647,0,0,1,1,4,4,5,5,7,7,9,9],"right_children":[2,4,-1,-1,6,8,-1,10,-1,12,-1,-1,-1],"split_conditions":[8.4987E-1,1.3664805E-3,-5.686931E-2,-5.6426E-2,9.06E-3,5.02E2,-5.4939386E-2,1E0,7.841372E-2,3.571E-2,-6.422292E-2,7.900569E-2,-3.323881E-2],"split_indices":[3,6,0,0,0,1,0,1,0,7,0,0,0],"split_type":[0,0,0,0,0,0,0,0,0,0,0,0,0],"sum_hessian":[7.96115E4,3.3784266E4,4.582723E4,1.0786438E2,3.3676402E4,3.3650125E4,2.6275045E1,2.2732761E3,3.1376852E4,2.098871E3,1.7440524E2,2.097863E3,1.0079329E0],"tree_param":{"num_deleted":"0","num_feature":"8","num_nodes":"13","size_leaf_vector":"1"}},{"base_weights":[-1.6256844E-4,-5.687399E-2,7.841993E-2],"categories":[],"categories_nodes":[],"categories_segments":[],"categories_sizes":[],"default_left":[0,0,0],"id":39,"left_children":[1,-1,-1],"loss_changes":[3.546215E4,0E0,0E0],"parents":[2147483647,0,0],"right_children":[2,-1,-1],"split_conditions":[1E0,-5.687399E-2,7.841993E-2],"split_indices":[7,0,0],"split_type":[0,0,0],"sum_hessian":[7.9514836E4,4.6098613E4,3.3416223E4],"tree_param":{"num_deleted":"0","num_feature":"8","num_nodes":"3","size_leaf_vector":"1"}},{"base_weights":[1.9166581E-4,-5.3824776E-1,3.4117696E-1,-2.9355234E-1,-5.6194272E-2,7.481687E-2,-5.6213405E-2,-5.346756E-1,7.8239076E-2,-5.6225073E-2,-4.3922642E-1,7.263761E-2,-5.384339E-1,1.0536345E-1,-2.144215E-2,-5.4548632E-2,5.3919245E-2],"categories":[],"categories_nodes":[],"categories_segments":[],"categories_sizes":[],"default_left":[0,0,0,0,0,0,0,0,0,0,0,0,0,0,0,0,0],"id":40,"left_children":[1,3,5,7,-1,-1,-1,9,-1,-1,11,13,15,-1,-1,-1,-1],"loss_changes":[1.3733323E4,1.6799414E2,1.6837398E4,6.6525085E2,0E0,0E0,0E0,5.2646484E0,0E0,0E0,2.4106133E1,2.2141848E1,3.3121567E0,0E0,0E0,0E0,0E0],"parents":[2147483647,0,0,1,1,2,2,3,3,7,7,10,10,11,11,12,12],"right_children":[2,4,6,8,-1,-1,-1,10,-1,-1,12,14,16,-1,-1,-1,-1],"split_conditions":[9.06E-3,5.02E2,1E0,3.481E-2,-5.6194272E-2,7.481687E-2,-5.6213405E-2,3.63E-3,7.8239076E-2,-5.6225073E-2,3E0,2.8297424E-1,8.4987E-1,1.0536345E-1,-2.144215E-2,-5.4548632E-2,5.3919245E-2],"split_indices":[0,1,7,4,0,0,0,0,0,0,2,6,3,0,0,0,0],"split_type":[0,0,0,0,0,0,0,0,0,0,0,0,0,0,0,0,0],"sum_hessian":[7.4798266E4,2.9001814E4,4.5796453E4,2.5616174E3,2.6440197E4,3.1571785E4,1.4224668E4,2.0930576E3,4.685598E2,1.6201177E3,4.729399E2,7.682531E1,3.961146E2,1.678698E1,6.003833E1,3.940297E2,2.0848844E0],"tree_param":{"num_deleted":"0","num_feature":"8","num_nodes":"17","size_leaf_vector":"1"}},{"base_weights":[-1.6788836E-4,7.220997E-1,-5.621463E-2,-5.613894E-2,7.481626E-2],"categories":[],"categories_nodes":[],"categories_segments":[],"categories_sizes":[],"default_left":[0,0,0,0,0],"id":41,"left_children":[1,3,-1,-1,-1],"loss_changes":[3.0344443E4,1.0947441E3,0E0,0E0,0E0],"parents":[2147483647,0,0,1,1],"right_children":[2,4,-1,-1,-1],"split_conditions":[3.6E-4,3.507E-2,-5.621463E-2,-5.613894E-2,7.481626E-2],"split_indices":[0,3,0,0,0],"split_type":[0,0,0,0,0],"sum_hessian":[7.475664E4,3.2712936E4,4.2043707E4,6.5064716E2,3.206229E4],"tree_param":{"num_deleted":"0","num_feature":"8","num_nodes":"5","size_leaf_vector":"1"}},{"base_weights":[1.4810095E-4,7.363308E-1,-5.621608E-2,-5.5724274E-2,7.403416E-1,7.4132615E-1,-5.4153394E-2,6.4684963E-1,7.481684E-2,7.5011736E-1,-6.269363E-2,7.656216E-2,7.1796484E-2],"categories":[],"categories_nodes":[],"categories_segments":[],"categories_sizes":[],"default_left":[0,0,0,0,0,0,0,0,0,0,0,0,0],"id":42,"left_children":[1,3,-1,-1,5,7,-1,9,-1,11,-1,-1,-1],"loss_changes":[3.0988322E4,1.6859961E2,0E0,0E0,4.1191406E1,2.0388672E1,0E0,2.883048E2,0E0,4.5947266E-1,0E0,0E0,0E0],"parents":[2147483647,0,0,1,1,4,4,5,5,7,7,9,9],"right_children":[2,4,-1,-1,6,8,-1,10,-1,12,-1,-1,-1],"split_conditions":[8.4987E-1,1.3664805E-3,-5.621608E-2,-5.5724274E-2,9.06E-3,5.02E2,-5.4153394E-2,1E0,7.481684E-2,3.5635E-1,-6.269363E-2,7.656216E-2,7.1796484E-2],"split_indices":[3,6,0,0,0,1,0,1,0,3,0,0,0],"split_type":[0,0,0,0,0,0,0,0,0,0,0,0,0],"sum_hessian":[7.485587E4,3.2416035E4,4.2439836E4,9.977015E1,3.2316264E4,3.2291883E4,2.4380789E1,2.187173E3,3.010471E4,2.0235333E3,1.6363974E2,1.3498246E3,6.7370874E2],"tree_param":{"num_deleted":"0","num_feature":"8","num_nodes":"13","size_leaf_vector":"1"}},{"base_weights":[-1.7217212E-4,-5.622058E-2,7.482351E-2],"categories":[],"categories_nodes":[],"categories_segments":[],"categories_sizes":[],"default_left":[0,0,0],"id":43,"left_children":[1,-1,-1],"loss_changes":[3.1444674E4,0E0,0E0],"parents":[2147483647,0,0],"right_children":[2,-1,-1],"split_conditions":[1E0,-5.622058E-2,7.482351E-2],"split_indices":[7,0,0],"split_type":[0,0,0],"sum_hessian":[7.475413E4,4.269305E4,3.206108E4],"tree_param":{"num_deleted":"0","num_feature":"8","num_nodes":"3","size_leaf_vector":"1"}},{"base_weights":[1.9931523E-4,-5.3210425E-1,3.3040497E-1,-2.8748932E-1,-5.5600584E-2,7.176738E-2,-5.5621363E-2,-5.2723175E-1,7.465793E-2,-5.5618584E-2,-4.280628E-1,8.2606524E-2,-5.304377E-1,1.0130677E-1,-1.9494304E-2,-5.375827E-2,5.1301386E-2],"categories":[],"categories_nodes":[],"categories_segments":[],"categories_sizes":[],"default_left":[0,0,0,0,0,0,0,0,0,0,0,0,0,0,0,0,0],"id":44,"left_children":[1,3,5,7,-1,-1,-1,9,-1,-1,11,13,15,-1,-1,-1,-1],"loss_changes":[1.2316228E4,1.5668262E2,1.48487705E4,5.9288416E2,0E0,0E0,0E0,5.3343506E0,0E0,0E0,2.3199455E1,1.9522285E1,3.0274887E0,0E0,0E0,0E0,0E0],"parents":[2147483647,0,0,1,1,2,2,3,3,7,7,10,10,11,11,12,12],"right_children":[2,4,6,8,-1,-1,-1,10,-1,-1,12,14,16,-1,-1,-1,-1],"split_conditions":[9.06E-3,5.02E2,1E0,3.481E-2,-5.5600584E-2,7.176738E-2,-5.5621363E-2,3.63E-3,7.465793E-2,-5.5618584E-2,3E0,2.8297424E-1,8.4987E-1,1.0130677E-1,-1.9494304E-2,-5.375827E-2,5.1301386E-2],"split_indices":[0,1,7,4,0,0,0,0,0,0,2,6,3,0,0,0,0],"split_type":[0,0,0,0,0,0,0,0,0,0,0,0,0,0,0,0,0],"sum_hessian":[7.006827E4,2.6824918E4,4.3243355E4,2.388941E3,2.4435977E4,3.009727E4,1.3146088E4,1.9397191E3,4.492217E2,1.4978011E3,4.4191797E2,7.3830055E1,3.6808792E2,1.6354143E1,5.747591E1,3.660661E2,2.021807E0],"tree_param":{"num_deleted":"0","num_feature":"8","num_nodes":"17","size_leaf_vector":"1"}},{"base_weights":[-1.7690017E-4,6.9308555E-1,-5.562211E-2,-5.5540856E-2,7.176673E-2],"categories":[],"categories_nodes":[],"categories_segments":[],"categories_sizes":[],"default_left":[0,0,0,0,0],"id":45,"left_children":[1,3,-1,-1,-1],"loss_changes":[2.6993959E4,9.569248E2,0E0,0E0,0E0],"parents":[2147483647,0,0,1,1],"right_children":[2,4,-1,-1,-1],"split_conditions":[3.6E-4,3.507E-2,-5.562211E-2,-5.5540856E-2,7.176673E-2],"split_indices":[0,3,0,0,0],"split_type":[0,0,0,0,0],"sum_hessian":[7.002404E4,3.1166346E4,3.8857695E4,6.01369E2,3.0564977E4],"tree_param":{"num_deleted":"0","num_feature":"8","num_nodes":"5","size_leaf_vector":"1"}},{"base_weights":[1.5942428E-4,7.0629406E-1,-5.5624243E-2,-5.5082973E-2,7.100694E-1,7.109992E-1,-5.3414386E-2,6.191118E-1,7.176732E-2,7.166937E-1,-6.1332937E-2,7.174373E-2,-3.4333825E-2],"categories":[],"categories_nodes":[],"categories_segments":[],"categories_sizes":[],"default_left":[0,0,0,0,0,0,0,0,0,0,0,0,0],"id":46,"left_children":[1,3,-1,-1,5,7,-1,9,-1,11,-1,-1,-1],"loss_changes":[2.7553184E4,1.4707422E2,0E0,0E0,3.602539E1,1.84375E1,0E0,2.5206494E2,0E0,1.7748413E0,0E0,0E0,0E0],"parents":[2147483647,0,0,1,1,4,4,5,5,7,7,9,9],"right_children":[2,4,-1,-1,6,8,-1,10,-1,12,-1,-1,-1],"split_conditions":[8.4987E-1,1.3664805E-3,-5.5624243E-2,-5.5082973E-2,9.06E-3,5.02E2,-5.3414386E-2,1E0,7.176732E-2,3.571E-2,-6.1332937E-2,7.174373E-2,-3.4333825E-2],"split_indices":[3,6,0,0,0,1,0,1,0,7,0,0,0],"split_type":[0,0,0,0,0,0,0,0,0,0,0,0,0],"sum_hessian":[7.0126695E4,3.0904826E4,3.9221867E4,9.2101685E1,3.0812725E4,3.0790146E4,2.2579775E1,2.0912754E3,2.8698871E4,1.9382292E3,1.530462E2,1.9371936E3,1.0356399E0],"tree_param":{"num_deleted":"0","num_feature":"8","num_nodes":"13","size_leaf_vector":"1"}},{"base_weights":[-1.8213475E-4,-5.5628564E-2,7.17745E-2],"categories":[],"categories_nodes":[],"categories_segments":[],"categories_sizes":[],"default_left":[0,0,0],"id":47,"left_children":[1,-1,-1],"loss_changes":[2.795619E4,0E0,0E0],"parents":[2147483647,0,0],"right_children":[2,-1,-1],"split_conditions":[1E0,-5.5628564E-2,7.17745E-2],"split_indices":[7,0,0],"split_type":[0,0,0],"sum_hessian":[7.002121E4,3.9457676E4,3.0563535E4],"tree_param":{"num_deleted":"0","num_feature":"8","num_nodes":"3","size_leaf_vector":"1"}},{"base_weights":[2.0914008E-4,-5.265223E-1,3.2103664E-1,-2.819136E-1,-5.506253E-2,6.916197E-2,-5.508514E-2,-5.2022594E-1,7.161891E-2,-5.5069935E-2,-4.1686985E-1,9.33829E-2,-5.227402E-1,9.798153E-2,-1.748758E-2,-5.2998465E-2,4.891337E-2],"categories":[],"categories_nodes":[],"categories_segments":[],"categories_sizes":[],"default_left":[0,0,0,0,0,0,0,0,0,0,0,0,0,0,0,0,0],"id":48,"left_children":[1,3,5,7,-1,-1,-1,9,-1,-1,11,13,15,-1,-1,-1,-1],"loss_changes":[1.1055689E4,1.4585059E2,1.3137213E4,5.292236E2,0E0,0E0,0E0,5.425232E0,0E0,0E0,2.235582E1,1.7245922E1,2.7672043E0,0E0,0E0,0E0,0E0],"parents":[2147483647,0,0,1,1,2,2,3,3,7,7,10,10,11,11,12,12],"right_children":[2,4,6,8,-1,-1,-1,10,-1,-1,12,14,16,-1,-1,-1,-1],"split_conditions":[9.06E-3,5.02E2,1E0,3.481E-2,-5.506253E-2,6.916197E-2,-5.508514E-2,3.63E-3,7.161891E-2,-5.5069935E-2,3E0,2.8297424E-1,8.4987E-1,9.798153E-2,-1.748758E-2,-5.2998465E-2,4.891337E-2],"split_indices":[0,1,7,4,0,0,0,0,0,0,2,6,3,0,0,0,0],"split_type":[0,0,0,0,0,0,0,0,0,0,0,0,0,0,0,0,0],"sum_hessian":[6.5420184E4,2.476334E4,4.0656848E4,2.2223691E3,2.254097E4,2.8530562E4,1.2126283E4,1.794406E3,4.2796323E2,1.3824713E3,4.1193472E2,7.08043E1,3.4113043E2,1.58330765E1,5.4971222E1,3.3917834E2,1.9520887E0],"tree_param":{"num_deleted":"0","num_feature":"8","num_nodes":"17","size_leaf_vector":"1"}},{"base_weights":[-1.8595261E-4,6.682676E-1,-5.508538E-2,-5.4998018E-2,6.916123E-2],"categories":[],"categories_nodes":[],"categories_segments":[],"categories_sizes":[],"default_left":[0,0,0,0,0],"id":49,"left_children":[1,3,-1,-1,-1],"loss_changes":[2.4064625E4,8.401953E2,0E0,0E0,0E0],"parents":[2147483647,0,0,1,1],"right_children":[2,4,-1,-1,-1],"split_conditions":[3.6E-4,3.507E-2,-5.508538E-2,-5.4998018E-2,6.916123E-2],"split_indices":[0,3,0,0,0],"split_type":[0,0,0,0,0],"sum_hessian":[6.5373965E4,2.9528824E4,3.5845137E4,5.547816E2,2.8974043E4],"tree_param":{"num_deleted":"0","num_feature":"8","num_nodes":"5","size_leaf_vector":"1"}},{"base_weights":[1.6862284E-4,6.806072E-1,-5.5088233E-2,-5.449549E-2,6.8418604E-1,6.850703E-1,-5.2715875E-2,5.951872E-1,6.9161825E-2,6.879644E-1,-6.0119208E-2,6.887161E-2,-3.394572E-2],"categories":[],"categories_nodes":[],"categories_segments":[],"categories_sizes":[],"default_left":[0,0,0,0,0,0,0,0,0,0,0,0,0],"id":50,"left_children":[1,3,-1,-1,5,7,-1,9,-1,11,-1,-1,-1],"loss_changes":[2.4552414E4,1.2888672E2,0E0,0E0,3.165332E1,1.6771484E1,0E0,2.212525E2,0E0,1.6600952E0,0E0,0E0,0E0],"parents":[2147483647,0,0,1,1,4,4,5,5,7,7,9,9],"right_children":[2,4,-1,-1,6,8,-1,10,-1,12,-1,-1,-1],"split_conditions":[8.4987E-1,1.3664805E-3,-5.5088233E-2,-5.449549E-2,9.06E-3,5.02E2,-5.2715875E-2,1E0,6.9161825E-2,3.571E-2,-6.0119208E-2,6.887161E-2,-3.394572E-2],"split_indices":[3,6,0,0,0,1,0,1,0,7,0,0,0],"split_type":[0,0,0,0,0,0,0,0,0,0,0,0,0],"sum_hessian":[6.5478727E4,2.9299465E4,3.617926E4,8.486957E1,2.9214596E4,2.919372E4,2.0875486E1,1.9885991E3,2.7205121E4,1.8458793E3,1.4271985E2,1.8448593E3,1.0199715E0],"tree_param":{"num_deleted":"0","num_feature":"8","num_nodes":"13","size_leaf_vector":"1"}},{"base_weights":[-1.9226327E-4,-5.5092394E-2,6.9169596E-2],"categories":[],"categories_nodes":[],"categories_segments":[],"categories_sizes":[],"default_left":[0,0,0],"id":51,"left_children":[1,-1,-1],"loss_changes":[2.4909967E4,0E0,0E0],"parents":[2147483647,0,0],"right_children":[2,-1,-1],"split_conditions":[1E0,-5.5092394E-2,6.9169596E-2],"split_indices":[7,0,0],"split_type":[0,0,0],"sum_hessian":[6.5370812E4,3.6398445E4,2.8972363E4],"tree_param":{"num_deleted":"0","num_feature":"8","num_nodes":"3","size_leaf_vector":"1"}},{"base_weights":[2.2078784E-4,-5.21447E-1,3.128545E-1,-2.7675864E-1,-5.4574963E-2,6.692113E-2,-5.459962E-2,-5.135924E-1,6.901965E-2,-5.4571725E-2,-4.0574795E-1,1.04472965E-1,-5.1538724E-1,6.71001E-2,-2.9460078E-2,-5.2273184E-2,4.671934E-2],"categories":[],"categories_nodes":[],"categories_segments":[],"categories_sizes":[],"default_left":[0,0,0,0,0,0,0,0,0,0,0,0,0,0,0,0,0],"id":52,"left_children":[1,3,5,7,-1,-1,-1,9,-1,-1,11,13,15,-1,-1,-1,-1],"loss_changes":[9.932202E3,1.3555273E2,1.1654754E4,4.7298407E2,0E0,0E0,0E0,5.5238953E0,0E0,0E0,2.1563622E1,1.5762188E1,2.5295181E0,0E0,0E0,0E0,0E0],"parents":[2147483647,0,0,1,1,2,2,3,3,7,7,10,10,11,11,12,12],"right_children":[2,4,6,8,-1,-1,-1,10,-1,-1,12,14,16,-1,-1,-1,-1],"split_conditions":[9.06E-3,5.02E2,1E0,3.481E-2,-5.4574963E-2,6.692113E-2,-5.459962E-2,3.63E-3,6.901965E-2,-5.4571725E-2,3E0,6.6754013E-1,8.4987E-1,6.71001E-2,-2.9460078E-2,-5.2273184E-2,4.671934E-2],"split_indices":[0,1,7,4,0,0,0,0,0,0,2,6,3,0,0,0,0],"split_type":[0,0,0,0,0,0,0,0,0,0,0,0,0,0,0,0,0],"sum_hessian":[6.0897785E4,2.2819678E4,3.807811E4,2.0628157E3,2.0756863E4,2.6911947E4,1.1166161E4,1.6573534E3,4.0546228E2,1.2738401E3,3.8351334E2,6.7843185E1,3.1567014E2,2.7757309E1,4.0085876E1,3.137926E2,1.8775403E0],"tree_param":{"num_deleted":"0","num_feature":"8","num_nodes":"17","size_leaf_vector":"1"}},{"base_weights":[-1.9513228E-4,6.469016E-1,-5.459934E-2,-5.450515E-2,6.692033E-2],"categories":[],"categories_nodes":[],"categories_segments":[],"categories_sizes":[],"default_left":[0,0,0,0,0],"id":53,"left_children":[1,3,-1,-1,-1],"loss_changes":[2.1492004E4,7.404844E2,0E0,0E0,0E0],"parents":[2147483647,0,0,1,1],"right_children":[2,4,-1,-1,-1],"split_conditions":[3.6E-4,3.507E-2,-5.459934E-2,-5.450515E-2,6.692033E-2],"split_indices":[0,3,0,0,0],"split_type":[0,0,0,0,0],"sum_hessian":[6.08501E4,2.7841324E4,3.3008777E4,5.1091867E2,2.7330406E4],"tree_param":{"num_deleted":"0","num_feature":"8","num_nodes":"5","size_leaf_vector":"1"}},{"base_weights":[1.7654645E-4,6.584914E-1,-5.460296E-2,-5.395585E-2,6.619045E-1,6.627506E-1,-5.2051723E-2,5.74373E-1,6.692093E-2,6.6304106E-1,-5.9033938E-2,6.638055E-2,-3.354844E-2],"categories":[],"categories_nodes":[],"categories_segments":[],"categories_sizes":[],"default_left":[0,0,0,0,0,0,0,0,0,0,0,0,0],"id":54,"left_children":[1,3,-1,-1,5,7,-1,9,-1,11,-1,-1,-1],"loss_changes":[2.1918986E4,1.1338965E2,0E0,0E0,2.7921875E1,1.5336914E1,0E0,1.9485059E2,0E0,1.5587158E0,0E0,0E0,0E0],"parents":[2147483647,0,0,1,1,4,4,5,5,7,7,9,9],"right_children":[2,4,-1,-1,6,8,-1,10,-1,12,-1,-1,-1],"split_conditions":[8.4987E-1,1.3664805E-3,-5.460296E-2,-5.395585E-2,9.06E-3,5.02E2,-5.2051723E-2,1E0,6.692093E-2,3.571E-2,-5.9033938E-2,6.638055E-2,-3.354844E-2],"split_indices":[3,6,0,0,0,1,0,1,0,7,0,0,0],"split_type":[0,0,0,0,0,0,0,0,0,0,0,0,0],"sum_hessian":[6.095594E4,2.7641193E4,3.331475E4,7.807709E1,2.7563115E4,2.7543846E4,1.9269608E1,1.8819658E3,2.566188E4,1.7492299E3,1.327359E2,1.7482267E3,1.0031935E0],"tree_param":{"num_deleted":"0","num_feature":"8","num_nodes":"13","size_leaf_vector":"1"}},{"base_weights":[-2.0281207E-4,-5.4606963E-2,6.692936E-2],"categories":[],"categories_nodes":[],"categories_segments":[],"categories_sizes":[],"default_left":[0,0,0],"id":55,"left_children":[1,-1,-1],"loss_changes":[2.2237492E4,0E0,0E0],"parents":[2147483647,0,0],"right_children":[2,-1,-1],"split_conditions":[1E0,-5.4606963E-2,6.692936E-2],"split_indices":[7,0,0],"split_type":[0,0,0],"sum_hessian":[6.084664E4,3.3518152E4,2.7328488E4],"tree_param":{"num_deleted":"0","num_feature":"8","num_nodes":"3","size_leaf_vector":"1"}},{"base_weights":[2.3388531E-4,-5.168206E-1,3.0568174E-1,-2.7192616E-1,-5.4133184E-2,6.498279E-2,-5.4160114E-2,-5.0716746E-1,6.678143E-2,-5.4119147E-2,-3.943001E-1,1.146552E-1,-5.0831294E-1,9.3886286E-2,-1.3845565E-2,-5.1575836E-2,4.4689815E-2],"categories":[],"categories_nodes":[],"categories_segments":[],"categories_sizes":[],"default_left":[0,0,0,0,0,0,0,0,0,0,0,0,0,0,0,0,0],"id":56,"left_children":[1,3,5,7,-1,-1,-1,9,-1,-1,11,13,15,-1,-1,-1,-1],"loss_changes":[8.929105E3,1.2588428E2,1.0363817E4,4.230766E2,0E0,0E0,0E0,5.6620483E0,0E0,0E0,2.0836185E1,1.3971321E1,2.3123016E0,0E0,0E0,0E0,0E0],"parents":[2147483647,0,0,1,1,2,2,3,3,7,7,10,10,11,11,12,12],"right_children":[2,4,6,8,-1,-1,-1,10,-1,-1,12,14,16,-1,-1,-1,-1],"split_conditions":[9.06E-3,5.02E2,1E0,3.481E-2,-5.4133184E-2,6.498279E-2,-5.4160114E-2,3.63E-3,6.678143E-2,-5.4119147E-2,3E0,2.8297424E-1,8.4987E-1,9.3886286E-2,-1.3845565E-2,-5.1575836E-2,4.4689815E-2],"split_indices":[0,1,7,4,0,0,0,0,0,0,2,6,3,0,0,0,0],"split_type":[0,0,0,0,0,0,0,0,0,0,0,0,0,0,0,0,0],"sum_hessian":[5.6535234E4,2.09949E4,3.5540332E4,1.9112717E3,1.9083629E4,2.527462E4,1.0265714E4,1.528987E3,3.8228467E2,1.1719166E3,3.5707047E2,6.53484E1,2.9172208E2,1.4716757E1,5.0631638E1,2.8992233E2,1.7997448E0],"tree_param":{"num_deleted":"0","num_feature":"8","num_nodes":"17","size_leaf_vector":"1"}},{"base_weights":[-2.0506998E-4,6.2840366E-1,-5.4159265E-2,-5.4057486E-2,6.49819E-2],"categories":[],"categories_nodes":[],"categories_segments":[],"categories_sizes":[],"default_left":[0,0,0,0,0],"id":57,"left_children":[1,3,-1,-1,-1],"loss_changes":[1.9224115E4,6.547041E2,0E0,0E0,0E0],"parents":[2147483647,0,0,1,1],"right_children":[2,4,-1,-1,-1],"split_conditions":[3.6E-4,3.507E-2,-5.4159265E-2,-5.4057486E-2,6.49819E-2],"split_indices":[0,3,0,0,0],"split_type":[0,0,0,0,0],"sum_hessian":[5.6486188E4,2.6137545E4,3.034864E4,4.6978012E2,2.5667766E4],"tree_param":{"num_deleted":"0","num_feature":"8","num_nodes":"5","size_leaf_vector":"1"}},{"base_weights":[1.8488218E-4,6.3933575E-1,-5.4163724E-2,-5.34645E-2,6.426106E-1,6.434246E-1,-5.141613E-2,5.561424E-1,6.4982496E-2,6.412556E-1,-5.806008E-2,6.6014096E-2,6.027546E-2],"categories":[],"categories_nodes":[],"categories_segments":[],"categories_sizes":[],"default_left":[0,0,0,0,0,0,0,0,0,0,0,0,0],"id":58,"left_children":[1,3,-1,-1,5,7,-1,9,-1,11,-1,-1,-1],"loss_changes":[1.9598975E4,1.0016992E2,0E0,0E0,2.4710938E1,1.4094727E1,0E0,1.7208453E2,0E0,8.0303955E-1,0E0,0E0,0E0],"parents":[2147483647,0,0,1,1,4,4,5,5,7,7,9,9],"right_children":[2,4,-1,-1,6,8,-1,10,-1,12,-1,-1,-1],"split_conditions":[8.4987E-1,1.3664805E-3,-5.4163724E-2,-5.34645E-2,9.06E-3,5.02E2,-5.141613E-2,1E0,6.4982496E-2,3.5635E-1,-5.806008E-2,6.6014096E-2,6.027546E-2],"split_indices":[3,6,0,0,0,1,0,1,0,3,0,0,0],"split_type":[0,0,0,0,0,0,0,0,0,0,0,0,0],"sum_hessian":[5.6592375E4,2.5964104E4,3.0628273E4,7.177545E1,2.5892328E4,2.5874564E4,1.7762272E1,1.7737692E3,2.4100795E4,1.6506157E3,1.23153366E2,1.0965804E3,5.5403534E2],"tree_param":{"num_deleted":"0","num_feature":"8","num_nodes":"13","size_leaf_vector":"1"}},{"base_weights":[-2.1421873E-4,-5.416758E-2,6.499168E-2],"categories":[],"categories_nodes":[],"categories_segments":[],"categories_sizes":[],"default_left":[0,0,0],"id":59,"left_children":[1,-1,-1],"loss_changes":[1.9883701E4,0E0,0E0],"parents":[2147483647,0,0],"right_children":[2,-1,-1],"split_conditions":[1E0,-5.416758E-2,6.499168E-2],"split_indices":[7,0,0],"split_type":[0,0,0],"sum_hessian":[5.648242E4,3.081681E4,2.5665613E4],"tree_param":{"num_deleted":"0","num_feature":"8","num_nodes":"3","size_leaf_vector":"1"}},{"base_weights":[2.4925277E-4,-5.126115E-1,2.9937303E-1,-2.674335E-1,-5.373287E-2,6.3297674E-2,-5.3762317E-2,-5.0109076E-1,6.484265E-2,-5.3705897E-2,-3.833452E-1,1.2553075E-1,-5.0158346E-1,6.503661E-2,-2.6148155E-2,-5.0912004E-2,4.2800516E-2],"categories":[],"categories_nodes":[],"categories_segments":[],"categories_sizes":[],"default_left":[0,0,0,0,0,0,0,0,0,0,0,0,0,0,0,0,0],"id":60,"left_children":[1,3,5,7,-1,-1,-1,9,-1,-1,11,13,15,-1,-1,-1,-1],"loss_changes":[8.032305E3,1.1674512E2,9.234468E3,3.787616E2,0E0,0E0,0E0,5.7635803E0,0E0,0E0,2.0118069E1,1.30973215E1,2.1141891E0,0E0,0E0,0E0,0E0],"parents":[2147483647,0,0,1,1,2,2,3,3,7,7,10,10,11,11,12,12],"right_children":[2,4,6,8,-1,-1,-1,10,-1,-1,12,14,16,-1,-1,-1,-1],"split_conditions":[9.06E-3,5.02E2,1E0,3.481E-2,-5.373287E-2,6.3297674E-2,-5.3762317E-2,3.63E-3,6.484265E-2,-5.3705897E-2,3E0,6.6754013E-1,8.4987E-1,6.503661E-2,-2.6148155E-2,-5.0912004E-2,4.2800516E-2],"split_indices":[0,1,7,4,0,0,0,0,0,0,2,6,3,0,0,0,0],"split_type":[0,0,0,0,0,0,0,0,0,0,0,0,0,0,0,0,0],"sum_hessian":[5.2356812E4,1.9287256E4,3.3069555E4,1.767418E3,1.7519838E4,2.3645395E4,9.424161E3,1.4085236E3,3.5889438E2,1.0762086E3,3.3231497E2,6.2644188E1,2.6967078E2,2.6299042E1,3.6345146E1,2.679507E2,1.7200642E0],"tree_param":{"num_deleted":"0","num_feature":"8","num_nodes":"17","size_leaf_vector":"1"}},{"base_weights":[-2.1516968E-4,6.123106E-1,-5.3760868E-2,-5.3650565E-2,6.329669E-2],"categories":[],"categories_nodes":[],"categories_segments":[],"categories_sizes":[],"default_left":[0,0,0,0,0],"id":61,"left_children":[1,3,-1,-1,-1],"loss_changes":[1.7218445E4,5.804424E2,0E0,0E0,0E0],"parents":[2147483647,0,0,1,1],"right_children":[2,4,-1,-1,-1],"split_conditions":[3.6E-4,3.507E-2,-5.3760868E-2,-5.3650565E-2,6.329669E-2],"split_indices":[0,3,0,0,0],"split_type":[0,0,0,0,0],"sum_hessian":[5.2307086E4,2.4444684E4,2.7862402E4,4.3132257E2,2.4013361E4],"tree_param":{"num_deleted":"0","num_feature":"8","num_nodes":"5","size_leaf_vector":"1"}},{"base_weights":[1.9156373E-4,6.226584E-1,-5.376623E-2,-5.3003926E-2,6.258126E-1,6.265993E-1,-5.080362E-2,5.399961E-1,6.3297294E-2,6.2200546E-1,-5.7185944E-2,6.2285434E-2,-3.4195203E-2],"categories":[],"categories_nodes":[],"categories_segments":[],"categories_sizes":[],"default_left":[0,0,0,0,0,0,0,0,0,0,0,0,0],"id":62,"left_children":[1,3,-1,-1,5,7,-1,9,-1,11,-1,-1,-1],"loss_changes":[1.7548293E4,8.8668945E1,0E0,0E0,2.193164E1,1.3025391E1,0E0,1.5232913E2,0E0,1.4835205E0,0E0,0E0,0E0],"parents":[2147483647,0,0,1,1,4,4,5,5,7,7,9,9],"right_children":[2,4,-1,-1,6,8,-1,10,-1,12,-1,-1,-1],"split_conditions":[8.4987E-1,1.3664805E-3,-5.376623E-2,-5.3003926E-2,9.06E-3,5.02E2,-5.080362E-2,1E0,6.3297294E-2,3.571E-2,-5.7185944E-2,6.2285434E-2,-3.4195203E-2],"split_indices":[3,6,0,0,0,1,0,1,0,7,0,0,0],"split_type":[0,0,0,0,0,0,0,0,0,0,0,0,0],"sum_hessian":[5.2412855E4,2.4295328E4,2.811753E4,6.584359E1,2.4229484E4,2.4213133E4,1.635234E1,1.6656936E3,2.2547438E4,1.5516835E3,1.1401012E2,1.5506718E3,1.0116564E0],"tree_param":{"num_deleted":"0","num_feature":"8","num_nodes":"13","size_leaf_vector":"1"}},{"base_weights":[-2.2617188E-4,-5.3769946E-2,6.330731E-2],"categories":[],"categories_nodes":[],"categories_segments":[],"categories_sizes":[],"default_left":[0,0,0],"id":63,"left_children":[1,-1,-1],"loss_changes":[1.7803658E4,0E0,0E0],"parents":[2147483647,0,0],"right_children":[2,-1,-1],"split_conditions":[1E0,-5.3769946E-2,6.330731E-2],"split_indices":[7,0,0],"split_type":[0,0,0],"sum_hessian":[5.2303027E4,2.8292057E4,2.401097E4],"tree_param":{"num_deleted":"0","num_feature":"8","num_nodes":"3","size_leaf_vector":"1"}},{"base_weights":[2.6671542E-4,-5.087631E-1,2.9380772E-1,-2.6314953E-1,-5.337007E-2,6.1826266E-2,-5.3402316E-2,-4.9511135E-1,6.315445E-2,-5.333186E-2,-3.7168986E-1,1.3611501E-1,-4.948808E-1,6.294247E-2,-2.4230635E-2,-5.0251853E-2,4.1031368E-2],"categories":[],"categories_nodes":[],"categories_segments":[],"categories_sizes":[],"default_left":[0,0,0,0,0,0,0,0,0,0,0,0,0,0,0,0,0],"id":64,"left_children":[1,3,5,7,-1,-1,-1,9,-1,-1,11,13,15,-1,-1,-1,-1],"loss_changes":[7.2293794E3,1.0824805E2,8.242564E3,3.392318E2,0E0,0E0,0E0,5.9198303E0,0E0,0E0,1.9459503E1,1.1596822E1,1.9324265E0,0E0,0E0,0E0,0E0],"parents":[2147483647,0,0,1,1,2,2,3,3,7,7,10,10,11,11,12,12],"right_children":[2,4,6,8,-1,-1,-1,10,-1,-1,12,14,16,-1,-1,-1,-1],"split_conditions":[9.06E-3,5.02E2,1E0,3.481E-2,-5.337007E-2,6.1826266E-2,-5.3402316E-2,3.63E-3,6.315445E-2,-5.333186E-2,3E0,6.6754013E-1,8.4987E-1,6.294247E-2,-2.4230635E-2,-5.0251853E-2,4.1031368E-2],"split_indices":[0,1,7,4,0,0,0,0,0,0,2,6,3,0,0,0,0],"split_type":[0,0,0,0,0,0,0,0,0,0,0,0,0,0,0,0,0],"sum_hessian":[4.838058E4,1.7694973E4,3.0685605E4,1.6320708E3,1.6062901E4,2.2045486E4,8.640119E3,1.2964061E3,3.3566467E2,9.8741437E2,3.0899176E2,6.030478E1,2.4868698E2,2.5890572E1,3.4414207E1,2.4704733E2,1.6396503E0],"tree_param":{"num_deleted":"0","num_feature":"8","num_nodes":"17","size_leaf_vector":"1"}},{"base_weights":[-2.2627889E-4,5.982485E-1,-5.340023E-2,-5.3280573E-2,6.1825164E-2],"categories":[],"categories_nodes":[],"categories_segments":[],"categories_sizes":[],"default_left":[0,0,0,0,0],"id":65,"left_children":[1,3,-1,-1,-1],"loss_changes":[1.5439801E4,5.1583545E2,0E0,0E0,0E0],"parents":[2147483647,0,0,1,1],"right_children":[2,4,-1,-1,-1],"split_conditions":[3.6E-4,3.507E-2,-5.340023E-2,-5.3280573E-2,6.1825164E-2],"split_indices":[0,3,0,0,0],"split_type":[0,0,0,0,0],"sum_hessian":[4.8330223E4,2.2784219E4,2.5546004E4,3.9549966E2,2.238872E4],"tree_param":{"num_deleted":"0","num_feature":"8","num_nodes":"5","size_leaf_vector":"1"}},{"base_weights":[1.9785856E-4,6.080699E-1,-5.3406563E-2,-5.2581247E-2,6.1112267E-1,-5.0933402E-2,6.118832E-1,5.256098E-1,6.1825763E-2,6.054655E-1,-5.6403667E-2,6.063665E-2,-3.399445E-2],"categories":[],"categories_nodes":[],"categories_segments":[],"categories_sizes":[],"default_left":[0,0,0,0,0,0,0,0,0,0,0,0,0],"id":66,"left_children":[1,3,-1,-1,5,-1,7,9,-1,11,-1,-1,-1],"loss_changes":[1.57306E4,7.875098E1,0E0,0E0,1.956836E1,0E0,1.209375E1,1.3611945E2,0E0,1.4450073E0,0E0,0E0,0E0],"parents":[2147483647,0,0,1,1,4,4,6,6,7,7,9,9],"right_children":[2,4,-1,-1,6,-1,8,10,-1,12,-1,-1,-1],"split_conditions":[8.4987E-1,1.3664805E-3,-5.3406563E-2,-5.2581247E-2,2.32193E0,-5.0933402E-2,5.02E2,1E0,6.1825763E-2,3.571E-2,-5.6403667E-2,6.063665E-2,-3.399445E-2],"split_indices":[3,6,0,0,2,0,1,1,0,7,0,0,0],"split_type":[0,0,0,0,0,0,0,0,0,0,0,0,0],"sum_hessian":[4.843505E4,2.2656686E4,2.5778365E4,6.0375427E1,2.2596309E4,1.4874516E1,2.2581436E4,1.5594064E3,2.102203E4,1.4533414E3,1.06065E2,1.4523158E3,1.0255665E0],"tree_param":{"num_deleted":"0","num_feature":"8","num_nodes":"13","size_leaf_vector":"1"}},{"base_weights":[-2.3909417E-4,-5.341015E-2,6.183673E-2],"categories":[],"categories_nodes":[],"categories_segments":[],"categories_sizes":[],"default_left":[0,0,0],"id":67,"left_children":[1,-1,-1],"loss_changes":[1.5960323E4,0E0,0E0],"parents":[2147483647,0,0],"right_children":[2,-1,-1],"split_conditions":[1E0,-5.341015E-2,6.183673E-2],"split_indices":[7,0,0],"split_type":[0,0,0],"sum_hessian":[4.83259E4,2.5939785E4,2.2386111E4],"tree_param":{"num_deleted":"0","num_feature":"8","num_nodes":"3","size_leaf_vector":"1"}},{"base_weights":[2.862276E-4,-5.052451E-1,2.8888535E-1,-2.5907895E-1,-5.3041197E-2,6.0536504E-2,-5.3076543E-2,-4.8930806E-1,6.167818E-2,-5.299123E-2,-3.599733E-1,1.4616895E-1,-4.8827422E-1,4.9196303E-2,-3.6471557E-2,-4.9601343E-2,3.936577E-2],"categories":[],"categories_nodes":[],"categories_segments":[],"categories_sizes":[],"default_left":[0,0,0,0,0,0,0,0,0,0,0,0,0,0,0,0,0],"id":68,"left_children":[1,3,5,7,-1,-1,-1,9,-1,-1,11,13,15,-1,-1,-1,-1],"loss_changes":[6.509774E3,1.00319824E2,7.3683906E3,3.0397885E2,0E0,0E0,0E0,6.0746765E0,0E0,0E0,1.87855E1,1.0610819E1,1.766037E0,0E0,0E0,0E0,0E0],"parents":[2147483647,0,0,1,1,2,2,3,3,7,7,10,10,11,11,12,12],"right_children":[2,4,6,8,-1,-1,-1,10,-1,-1,12,14,16,-1,-1,-1,-1],"split_conditions":[9.06E-3,5.02E2,1E0,3.481E-2,-5.3041197E-2,6.0536504E-2,-5.3076543E-2,3.63E-3,6.167818E-2,-5.299123E-2,3E0,7.910146E-1,8.4987E-1,4.9196303E-2,-3.6471557E-2,-4.9601343E-2,3.936577E-2],"split_indices":[0,1,7,4,0,0,0,0,0,0,2,6,3,0,0,0,0],"split_type":[0,0,0,0,0,0,0,0,0,0,0,0,0,0,0,0,0],"sum_hessian":[4.4617305E4,1.6214336E4,2.8402967E4,1.5049712E3,1.4709365E4,2.0491246E4,7.9117217E3,1.1920657E3,3.1290555E2,9.0488336E2,2.8718228E2,5.804757E1,2.2913472E2,3.463904E1,2.3408527E1,2.2757526E2,1.5594611E0],"tree_param":{"num_deleted":"0","num_feature":"8","num_nodes":"17","size_leaf_vector":"1"}},{"base_weights":[-2.3787054E-4,5.859147E-1,-5.307377E-2,-5.2943744E-2,6.0535252E-2],"categories":[],"categories_nodes":[],"categories_segments":[],"categories_sizes":[],"default_left":[0,0,0,0,0],"id":69,"left_children":[1,3,-1,-1,-1],"loss_changes":[1.385878E4,4.5936572E2,0E0,0E0,0E0],"parents":[2147483647,0,0,1,1],"right_children":[2,4,-1,-1,-1],"split_conditions":[3.6E-4,3.507E-2,-5.307377E-2,-5.2943744E-2,6.0535252E-2],"split_indices":[0,3,0,0,0],"split_type":[0,0,0,0,0],"sum_hessian":[4.4566605E4,2.1172678E4,2.3393928E4,3.6221774E2,2.081046E4],"tree_param":{"num_deleted":"0","num_feature":"8","num_nodes":"5","size_leaf_vector":"1"}},{"base_weights":[2.034434E-4,5.9525734E-1,-5.308115E-2,-5.2186556E-2,5.9822273E-1,-5.0370146E-2,5.989645E-1,5.127712E-1,6.0535878E-2,5.901978E-1,-5.5690553E-2,5.9112575E-2,-3.3427708E-2],"categories":[],"categories_nodes":[],"categories_segments":[],"categories_sizes":[],"default_left":[0,0,0,0,0,0,0,0,0,0,0,0,0],"id":70,"left_children":[1,3,-1,-1,5,-1,7,9,-1,11,-1,-1,-1],"loss_changes":[1.4115563E4,7.00957E1,0E0,0E0,1.7476074E1,0E0,1.1260742E1,1.2096695E2,0E0,1.3632507E0,0E0,0E0,0E0],"parents":[2147483647,0,0,1,1,4,4,6,6,7,7,9,9],"right_children":[2,4,-1,-1,6,-1,8,10,-1,12,-1,-1,-1],"split_conditions":[8.4987E-1,1.3664805E-3,-5.308115E-2,-5.2186556E-2,2.32193E0,-5.0370146E-2,5.02E2,1E0,6.0535878E-2,3.571E-2,-5.5690553E-2,5.9112575E-2,-3.3427708E-2],"split_indices":[3,6,0,0,2,0,1,1,0,7,0,0,0],"split_type":[0,0,0,0,0,0,0,0,0,0,0,0,0],"sum_hessian":[4.4669973E4,2.106475E4,2.3605225E4,5.530408E1,2.1009445E4,1.3677585E1,2.0995768E4,1.455607E3,1.9540162E4,1.3577751E3,9.7831825E1,1.3567739E3,1.0012755E0],"tree_param":{"num_deleted":"0","num_feature":"8","num_nodes":"13","size_leaf_vector":"1"}},{"base_weights":[-2.5273178E-4,-5.3084623E-2,6.0547885E-2],"categories":[],"categories_nodes":[],"categories_segments":[],"categories_sizes":[],"default_left":[0,0,0],"id":71,"left_children":[1,-1,-1],"loss_changes":[1.4322753E4,0E0,0E0],"parents":[2147483647,0,0],"right_children":[2,-1,-1],"split_conditions":[1E0,-5.3084623E-2,6.0547885E-2],"split_indices":[7,0,0],"split_type":[0,0,0],"sum_hessian":[4.4562023E4,2.375438E4,2.0807643E4],"tree_param":{"num_deleted":"0","num_feature":"8","num_nodes":"3","size_leaf_vector":"1"}},{"base_weights":[3.0796925E-4,-5.0201637E-1,2.8452137E-1,-2.5514838E-1,-5.274297E-2,5.9402086E-2,-5.278173E-2,-4.8353747E-1,6.038118E-2,-5.268069E-2,-3.478464E-1,1.5552413E-1,-4.817122E-1,9.062666E-2,-7.3442957E-3,-4.895526E-2,3.779E-2],"categories":[],"categories_nodes":[],"categories_segments":[],"categories_sizes":[],"default_left":[0,0,0,0,0,0,0,0,0,0,0,0,0,0,0,0,0],"id":72,"left_children":[1,3,5,7,-1,-1,-1,9,-1,-1,11,13,15,-1,-1,-1,-1],"loss_changes":[5.864164E3,9.298242E1,6.5956816E3,2.7243768E2,0E0,0E0,0E0,6.25412E0,0E0,0E0,1.8136433E1,9.87549E0,1.6136589E0,0E0,0E0,0E0,0E0],"parents":[2147483647,0,0,1,1,2,2,3,3,7,7,10,10,11,11,12,12],"right_children":[2,4,6,8,-1,-1,-1,10,-1,-1,12,14,16,-1,-1,-1,-1],"split_conditions":[9.06E-3,5.02E2,1E0,3.481E-2,-5.274297E-2,5.9402086E-2,-5.278173E-2,3.63E-3,6.038118E-2,-5.268069E-2,3E0,2.8297424E-1,8.4987E-1,9.062666E-2,-7.3442957E-3,-4.895526E-2,3.779E-2],"split_indices":[0,1,7,4,0,0,0,0,0,0,2,6,3,0,0,0,0],"split_type":[0,0,0,0,0,0,0,0,0,0,0,0,0,0,0,0,0],"sum_hessian":[4.1072977E4,1.484134E4,2.6231639E4,1.3862448E3,1.3455095E4,1.899489E4,7.2367476E3,1.0954203E3,2.908245E2,8.28382E2,2.670383E2,5.6063393E1,2.109749E2,1.2411202E1,4.365219E1,2.0949461E2,1.4802793E0],"tree_param":{"num_deleted":"0","num_feature":"8","num_nodes":"17","size_leaf_vector":"1"}},{"base_weights":[-2.504571E-4,5.7506037E-1,-5.277824E-2,-5.2636713E-2,5.9400674E-2],"categories":[],"categories_nodes":[],"categories_segments":[],"categories_sizes":[],"default_left":[0,0,0,0,0],"id":73,"left_children":[1,3,-1,-1,-1],"loss_changes":[1.2450575E4,4.0981348E2,0E0,0E0,0E0],"parents":[2147483647,0,0,1,1],"right_children":[2,4,-1,-1,-1],"split_conditions":[3.6E-4,3.507E-2,-5.277824E-2,-5.2636713E-2,5.9400674E-2],"split_indices":[0,3,0,0,0],"split_type":[0,0,0,0,0],"sum_hessian":[4.1022016E4,1.9622357E4,2.1399658E4,3.3137573E2,1.9290982E4],"tree_param":{"num_deleted":"0","num_feature":"8","num_nodes":"5","size_leaf_vector":"1"}},{"base_weights":[2.0922863E-4,5.839587E-1,-5.278675E-2,-5.181814E-2,5.8684945E-1,-4.9791288E-2,5.875754E-1,5.011733E-1,5.940131E-2,5.7641953E-1,-5.5044767E-2,6.0034513E-2,5.2867163E-2],"categories":[],"categories_nodes":[],"categories_segments":[],"categories_sizes":[],"default_left":[0,0,0,0,0,0,0,0,0,0,0,0,0],"id":74,"left_children":[1,3,-1,-1,5,-1,7,9,-1,11,-1,-1,-1],"loss_changes":[1.267758E4,6.2538574E1,0E0,0E0,1.5633789E1,0E0,1.0531738E1,1.0765759E2,0E0,1.129364E0,0E0,0E0,0E0],"parents":[2147483647,0,0,1,1,4,4,6,6,7,7,9,9],"right_children":[2,4,-1,-1,6,-1,8,10,-1,12,-1,-1,-1],"split_conditions":[8.4987E-1,1.3664805E-3,-5.278675E-2,-5.181814E-2,2.32193E0,-4.9791288E-2,5.02E2,1E0,5.940131E-2,3.5635E-1,-5.5044767E-2,6.0034513E-2,5.2867163E-2],"split_indices":[3,6,0,0,2,0,1,1,0,3,0,0,0],"split_type":[0,0,0,0,0,0,0,0,0,0,0,0,0],"sum_hessian":[4.112366E4,1.9532184E4,2.1591479E4,5.0630856E1,1.9481553E4,1.2569563E1,1.9468982E4,1.3554962E3,1.8113486E4,1.265405E3,9.009121E1,8.352862E2,4.301188E2],"tree_param":{"num_deleted":"0","num_feature":"8","num_nodes":"13","size_leaf_vector":"1"}},{"base_weights":[-2.6762928E-4,-5.2790124E-2,5.9414484E-2],"categories":[],"categories_nodes":[],"categories_segments":[],"categories_sizes":[],"default_left":[0,0,0],"id":75,"left_children":[1,-1,-1],"loss_changes":[1.2864928E4,0E0,0E0],"parents":[2147483647,0,0],"right_children":[2,-1,-1],"split_conditions":[1E0,-5.2790124E-2,5.9414484E-2],"split_indices":[7,0,0],"split_type":[0,0,0],"sum_hessian":[4.1017184E4,2.1729225E4,1.9287959E4],"tree_param":{"num_deleted":"0","num_feature":"8","num_nodes":"3","size_leaf_vector":"1"}},{"base_weights":[3.32824E-4,-4.9906296E-1,2.8064406E-1,-2.5140613E-1,-5.2472394E-2,5.8401264E-2,-5.251495E-2,-4.779926E-1,5.9237327E-2,-5.2395333E-2,-3.362949E-1,1.6617975E-1,-4.75311E-1,4.9218893E-2,-3.4049556E-2,-4.8323713E-2,3.6292728E-2],"categories":[],"categories_nodes":[],"categories_segments":[],"categories_sizes":[],"default_left":[0,0,0,0,0,0,0,0,0,0,0,0,0,0,0,0,0],"id":76,"left_children":[1,3,5,7,-1,-1,-1,9,-1,-1,11,13,15,-1,-1,-1,-1],"loss_changes":[5.2845444E3,8.611743E1,5.910885E3,2.4426276E2,0E0,0E0,0E0,6.3788605E0,0E0,0E0,1.7493671E1,9.214209E0,1.4745407E0,0E0,0E0,0E0,0E0],"parents":[2147483647,0,0,1,1,2,2,3,3,7,7,10,10,11,11,12,12],"right_children":[2,4,6,8,-1,-1,-1,10,-1,-1,12,14,16,-1,-1,-1,-1],"split_conditions":[9.06E-3,5.02E2,1E0,3.481E-2,-5.2472394E-2,5.8401264E-2,-5.251495E-2,3.63E-3,5.9237327E-2,-5.2395333E-2,3E0,7.910146E-1,8.4987E-1,4.9218893E-2,-3.4049556E-2,-4.8323713E-2,3.6292728E-2],"split_indices":[0,1,7,4,0,0,0,0,0,0,2,6,3,0,0,0,0],"split_type":[0,0,0,0,0,0,0,0,0,0,0,0,0,0,0,0,0],"sum_hessian":[3.7748453E4,1.3570605E4,2.4177848E4,1.2751174E3,1.2295488E4,1.7565129E4,6.6127183E3,1.0055287E3,2.695887E2,7.572205E2,2.483081E2,5.376799E1,1.9454013E2,3.2734367E1,2.1033623E1,1.9313739E2,1.4027315E0],"tree_param":{"num_deleted":"0","num_feature":"8","num_nodes":"17","size_leaf_vector":"1"}},{"base_weights":[-2.6320093E-4,5.6547993E-1,-5.251066E-2,-5.235634E-2,5.8399677E-2],"categories":[],"categories_nodes":[],"categories_segments":[],"categories_sizes":[],"default_left":[0,0,0,0,0],"id":77,"left_children":[1,3,-1,-1,-1],"loss_changes":[1.1194069E4,3.661709E2,0E0,0E0,0E0],"parents":[2147483647,0,0,1,1],"right_children":[2,4,-1,-1,-1],"split_conditions":[3.6E-4,3.507E-2,-5.251066E-2,-5.235634E-2,5.8399677E-2],"split_indices":[0,3,0,0,0],"split_type":[0,0,0,0,0],"sum_hessian":[3.7697797E4,1.814198E4,1.9555816E4,3.028522E2,1.7839127E4],"tree_param":{"num_deleted":"0","num_feature":"8","num_nodes":"5","size_leaf_vector":"1"}},{"base_weights":[2.1236806E-4,5.739611E-1,-5.252042E-2,-5.146217E-2,5.7678324E-1,-4.921326E-2,5.774951E-1,4.9054936E-1,5.840032E-2,5.638224E-1,-5.4458786E-2,5.894916E-2,5.131201E-2],"categories":[],"categories_nodes":[],"categories_segments":[],"categories_sizes":[],"default_left":[0,0,0,0,0,0,0,0,0,0,0,0,0],"id":78,"left_children":[1,3,-1,-1,5,-1,7,9,-1,11,-1,-1,-1],"loss_changes":[1.1394875E4,5.5807617E1,0E0,0E0,1.3996582E1,0E0,9.905273E0,9.591531E1,0E0,1.2302856E0,0E0,0E0,0E0],"parents":[2147483647,0,0,1,1,4,4,6,6,7,7,9,9],"right_children":[2,4,-1,-1,6,-1,8,10,-1,12,-1,-1,-1],"split_conditions":[8.4987E-1,1.3664805E-3,-5.252042E-2,-5.146217E-2,2.32193E0,-4.921326E-2,5.02E2,1E0,5.840032E-2,3.5635E-1,-5.4458786E-2,5.894916E-2,5.131201E-2],"split_indices":[3,6,0,0,2,0,1,1,0,3,0,0,0],"split_type":[0,0,0,0,0,0,0,0,0,0,0,0,0],"sum_hessian":[3.7797336E4,1.8067617E4,1.9729719E4,4.6250607E1,1.8021365E4,1.1533694E1,1.8009832E4,1.2595305E3,1.6750303E4,1.1766927E3,8.283783E1,7.741391E2,4.025536E2],"tree_param":{"num_deleted":"0","num_feature":"8","num_nodes":"13","size_leaf_vector":"1"}},{"base_weights":[-2.830617E-4,-5.2523684E-2,5.8414787E-2],"categories":[],"categories_nodes":[],"categories_segments":[],"categories_sizes":[],"default_left":[0,0,0],"id":79,"left_children":[1,-1,-1],"loss_changes":[1.1564717E4,0E0,0E0],"parents":[2147483647,0,0],"right_children":[2,-1,-1],"split_conditions":[1E0,-5.2523684E-2,5.8414787E-2],"split_indices":[7,0,0],"split_type":[0,0,0],"sum_hessian":[3.7692734E4,1.9856826E4,1.7835908E4],"tree_param":{"num_deleted":"0","num_feature":"8","num_nodes":"3","size_leaf_vector":"1"}},{"base_weights":[3.5937902E-4,-4.9632758E-1,2.771928E-1,-2.4769525E-1,-5.222676E-2,5.7515915E-2,-5.2273523E-2,-4.7227255E-1,5.8224965E-2,-5.213427E-2,-3.2402524E-1,1.7432857E-1,-4.6887097E-1,9.0060346E-2,-4.2712996E-3,-4.7687963E-2,3.4864593E-2],"categories":[],"categories_nodes":[],"categories_segments":[],"categories_sizes":[],"default_left":[0,0,0,0,0,0,0,0,0,0,0,0,0,0,0,0,0],"id":80,"left_children":[1,3,5,7,-1,-1,-1,9,-1,-1,11,13,15,-1,-1,-1,-1],"loss_changes":[4.76363E3,7.98374E1,5.302618E3,2.1895901E2,0E0,0E0,0E0,6.5524597E0,0E0,0E0,1.6858805E1,8.403802E0,1.3470612E0,0E0,0E0,0E0,0E0],"parents":[2147483647,0,0,1,1,2,2,3,3,7,7,10,10,11,11,12,12],"right_children":[2,4,6,8,-1,-1,-1,10,-1,-1,12,14,16,-1,-1,-1,-1],"split_conditions":[9.06E-3,5.02E2,1E0,3.481E-2,-5.222676E-2,5.7515915E-2,-5.2273523E-2,3.63E-3,5.8224965E-2,-5.213427E-2,3E0,2.8297424E-1,8.4987E-1,9.0060346E-2,-4.2712996E-3,-4.7687963E-2,3.4864593E-2],"split_indices":[0,1,7,4,0,0,0,0,0,0,2,6,3,0,0,0,0],"split_type":[0,0,0,0,0,0,0,0,0,0,0,0,0,0,0,0,0],"sum_hessian":[3.464269E4,1.2397909E4,2.2244781E4,1.1722809E3,1.1225629E4,1.6207798E4,6.0369844E3,9.229642E2,2.493167E2,6.915447E2,2.3141948E2,5.2068817E1,1.7935066E2,1.125554E1,4.081328E1,1.7802335E2,1.3273062E0],"tree_param":{"num_deleted":"0","num_feature":"8","num_nodes":"17","size_leaf_vector":"1"}},{"base_weights":[-2.7768483E-4,5.570007E-1,-5.2268364E-2,-5.2099895E-2,5.751412E-2],"categories":[],"categories_nodes":[],"categories_segments":[],"categories_sizes":[],"default_left":[0,0,0,0,0],"id":81,"left_children":[1,3,-1,-1,-1],"loss_changes":[1.0071206E4,3.276255E2,0E0,0E0,0E0],"parents":[2147483647,0,0,1,1],"right_children":[2,4,-1,-1,-1],"split_conditions":[3.6E-4,3.507E-2,-5.2268364E-2,-5.2099895E-2,5.751412E-2],"split_indices":[0,3,0,0,0],"split_type":[0,0,0,0,0],"sum_hessian":[3.459203E4,1.6737344E4,1.7854686E4,2.7653525E2,1.6460809E4],"tree_param":{"num_deleted":"0","num_feature":"8","num_nodes":"5","size_leaf_vector":"1"}},{"base_weights":[2.1777184E-4,5.650815E-1,-5.2279472E-2,-5.1130444E-2,5.678473E-1,-4.863568E-2,5.685479E-1,4.8082584E-1,5.7514787E-2,5.522886E-1,-5.392332E-2,5.7986256E-2,4.984893E-2],"categories":[],"categories_nodes":[],"categories_segments":[],"categories_sizes":[],"default_left":[0,0,0,0,0,0,0,0,0,0,0,0,0],"id":82,"left_children":[1,3,-1,-1,5,-1,7,9,-1,11,-1,-1,-1],"loss_changes":[1.0248941E4,4.9944824E1,0E0,0E0,1.2562988E1,0E0,9.348633E0,8.55452E1,0E0,1.3329163E0,0E0,0E0,0E0],"parents":[2147483647,0,0,1,1,4,4,6,6,7,7,9,9],"right_children":[2,4,-1,-1,6,-1,8,10,-1,12,-1,-1,-1],"split_conditions":[8.4987E-1,1.3664805E-3,-5.2279472E-2,-5.1130444E-2,2.32193E0,-4.863568E-2,5.02E2,1E0,5.7514787E-2,3.5635E-1,-5.392332E-2,5.7986256E-2,4.984893E-2],"split_indices":[3,6,0,0,2,0,1,1,0,3,0,0,0],"split_type":[0,0,0,0,0,0,0,0,0,0,0,0,0],"sum_hessian":[3.468952E4,1.6677459E4,1.8012062E4,4.2272575E1,1.6635186E4,1.0587376E1,1.6624598E4,1.1684352E3,1.5456163E4,1.0923655E3,7.606977E1,7.1574414E2,3.7662134E2],"tree_param":{"num_deleted":"0","num_feature":"8","num_nodes":"13","size_leaf_vector":"1"}},{"base_weights":[-3.0054446E-4,-5.228265E-2,5.7530683E-2],"categories":[],"categories_nodes":[],"categories_segments":[],"categories_sizes":[],"default_left":[0,0,0],"id":83,"left_children":[1,-1,-1],"loss_changes":[1.0403253E4,0E0,0E0],"parents":[2147483647,0,0],"right_children":[2,-1,-1],"split_conditions":[1E0,-5.228265E-2,5.7530683E-2],"split_indices":[7,0,0],"split_type":[0,0,0],"sum_hessian":[3.4586758E4,1.8129352E4,1.6457406E4],"tree_param":{"num_deleted":"0","num_feature":"8","num_nodes":"3","size_leaf_vector":"1"}},{"base_weights":[3.9043464E-4,-4.938113E-1,2.7411497E-1,-2.4408731E-1,-5.20036E-2,5.6730803E-2,-5.2055E-2,-4.666929E-1,5.7325996E-2,-5.1894885E-2,-3.1186926E-1,1.849858E-1,-4.6234766E-1,4.9222887E-2,-3.165856E-2,-4.704353E-2,3.349791E-2],"categories":[],"categories_nodes":[],"categories_segments":[],"categories_sizes":[],"default_left":[0,0,0,0,0,0,0,0,0,0,0,0,0,0,0,0,0],"id":84,"left_children":[1,3,5,7,-1,-1,-1,9,-1,-1,11,13,15,-1,-1,-1,-1],"loss_changes":[4.2952593E3,7.3993164E1,4.7612485E3,1.9631018E2,0E0,0E0,0E0,6.693939E0,0E0,0E0,1.6260584E1,8.015921E0,1.2302055E0,0E0,0E0,0E0,0E0],"parents":[2147483647,0,0,1,1,2,2,3,3,7,7,10,10,11,11,12,12],"right_children":[2,4,6,8,-1,-1,-1,10,-1,-1,12,14,16,-1,-1,-1,-1],"split_conditions":[9.06E-3,5.02E2,1E0,3.481E-2,-5.20036E-2,5.6730803E-2,-5.2055E-2,3.63E-3,5.7325996E-2,-5.1894885E-2,3E0,7.910146E-1,8.4987E-1,4.9222887E-2,-3.165856E-2,-4.704353E-2,3.349791E-2],"split_indices":[0,1,7,4,0,0,0,0,0,0,2,6,3,0,0,0,0],"split_type":[0,0,0,0,0,0,0,0,0,0,0,0,0,0,0,0,0],"sum_hessian":[3.1750023E4,1.1316894E4,2.0433129E4,1.0764767E3,1.0240417E4,1.4926322E4,5.506807E3,8.463902E2,2.3008644E2,6.310476E2,2.1534256E2,5.0004982E1,1.6533759E2,3.102122E1,1.898376E1,1.640832E2,1.2543736E0],"tree_param":{"num_deleted":"0","num_feature":"8","num_nodes":"17","size_leaf_vector":"1"}},{"base_weights":[-2.9244294E-4,5.4947793E-1,-5.2048903E-2,-5.186482E-2,5.6728777E-2],"categories":[],"categories_nodes":[],"categories_segments":[],"categories_sizes":[],"default_left":[0,0,0,0,0],"id":85,"left_children":[1,3,-1,-1,-1],"loss_changes":[9.066384E3,2.9349512E2,0E0,0E0,0E0],"parents":[2147483647,0,0,1,1],"right_children":[2,4,-1,-1,-1],"split_conditions":[3.6E-4,3.507E-2,-5.2048903E-2,-5.186482E-2,5.6728777E-2],"split_indices":[0,3,0,0,0],"split_type":[0,0,0,0,0],"sum_hessian":[3.16999E4,1.5411832E4,1.6288068E4,2.5229973E2,1.5159532E4],"tree_param":{"num_deleted":"0","num_feature":"8","num_nodes":"5","size_leaf_vector":"1"}},{"base_weights":[2.1928166E-4,5.5717385E-1,-5.20615E-2,-5.0805327E-2,5.598867E-1,-4.8056327E-2,5.605773E-1,4.7176862E-1,5.6729473E-2,5.415705E-1,-5.3434122E-2,5.7133712E-2,4.8421755E-2],"categories":[],"categories_nodes":[],"categories_segments":[],"categories_sizes":[],"default_left":[0,0,0,0,0,0,0,0,0,0,0,0,0],"id":86,"left_children":[1,3,-1,-1,5,-1,7,9,-1,11,-1,-1,-1],"loss_changes":[9.223705E3,4.4688477E1,0E0,0E0,1.1282227E1,0E0,8.870117E0,7.635121E1,0E0,1.4532166E0,0E0,0E0,0E0],"parents":[2147483647,0,0,1,1,4,4,6,6,7,7,9,9],"right_children":[2,4,-1,-1,6,-1,8,10,-1,12,-1,-1,-1],"split_conditions":[8.4987E-1,1.3664805E-3,-5.20615E-2,-5.0805327E-2,2.32193E0,-4.8056327E-2,5.02E2,1E0,5.6729473E-2,3.5635E-1,-5.3434122E-2,5.7133712E-2,4.8421755E-2],"split_indices":[3,6,0,0,2,0,1,1,0,3,0,0,0],"split_type":[0,0,0,0,0,0,0,0,0,0,0,0,0],"sum_hessian":[3.1794996E4,1.5364687E4,1.643031E4,3.855717E1,1.5326129E4,9.70501E0,1.5316424E4,1.0820645E3,1.4234359E4,1.01229517E3,6.976924E1,6.605187E2,3.517765E2],"tree_param":{"num_deleted":"0","num_feature":"8","num_nodes":"13","size_leaf_vector":"1"}},{"base_weights":[-3.186916E-4,-5.2064594E-2,5.674695E-2],"categories":[],"categories_nodes":[],"categories_segments":[],"categories_sizes":[],"default_left":[0,0,0],"id":87,"left_children":[1,-1,-1],"loss_changes":[9.364254E3,0E0,0E0],"parents":[2147483647,0,0],"right_children":[2,-1,-1],"split_conditions":[1E0,-5.2064594E-2,5.674695E-2],"split_indices":[7,0,0],"split_type":[0,0,0],"sum_hessian":[3.1694428E4,1.6538475E4,1.5155954E4],"tree_param":{"num_deleted":"0","num_feature":"8","num_nodes":"3","size_leaf_vector":"1"}},{"base_weights":[4.2327403E-4,-4.914597E-1,2.7136597E-1,-2.4044575E-1,-5.1800657E-2,5.6033053E-2,-5.1857192E-2,-4.6084672E-1,5.652517E-2,-5.1674753E-2,-2.9899162E-1,1.9286214E-1,-4.5570117E-1,9.0083145E-2,-1.3366045E-3,-4.6386313E-2,3.218636E-2],"categories":[],"categories_nodes":[],"categories_segments":[],"categories_sizes":[],"default_left":[0,0,0,0,0,0,0,0,0,0,0,0,0,0,0,0,0],"id":88,"left_children":[1,3,5,7,-1,-1,-1,9,-1,-1,11,13,15,-1,-1,-1,-1],"loss_changes":[3.8737737E3,6.8670654E1,4.278568E3,1.7593457E2,0E0,0E0,0E0,6.878769E0,0E0,0E0,1.5652094E1,7.2382517E0,1.123064E0,0E0,0E0,0E0,0E0],"parents":[2147483647,0,0,1,1,2,2,3,3,7,7,10,10,11,11,12,12],"right_children":[2,4,6,8,-1,-1,-1,10,-1,-1,12,14,16,-1,-1,-1,-1],"split_conditions":[9.06E-3,5.02E2,1E0,3.481E-2,-5.1800657E-2,5.6033053E-2,-5.1857192E-2,3.63E-3,5.652517E-2,-5.1674753E-2,3E0,2.8297424E-1,8.4987E-1,9.0083145E-2,-1.3366045E-3,-4.6386313E-2,3.218636E-2],"split_indices":[0,1,7,4,0,0,0,0,0,0,2,6,3,0,0,0,0],"split_type":[0,0,0,0,0,0,0,0,0,0,0,0,0,0,0,0,0],"sum_hessian":[2.906465E4,1.032298E4,1.874167E4,9.8828687E2,9.334693E3,1.3722265E4,5.0194053E3,7.763437E2,2.1194315E2,5.754162E2,2.0092752E2,4.8493507E1,1.5243402E2,1.0179557E1,3.831395E1,1.5124982E2,1.1842004E0],"tree_param":{"num_deleted":"0","num_feature":"8","num_nodes":"17","size_leaf_vector":"1"}},{"base_weights":[-3.090855E-4,5.427893E-1,-5.1850088E-2,-5.1648747E-2,5.6030776E-2],"categories":[],"categories_nodes":[],"categories_segments":[],"categories_sizes":[],"default_left":[0,0,0,0,0],"id":89,"left_children":[1,3,-1,-1,-1],"loss_changes":[8.166159E3,2.6320215E2,0E0,0E0,0E0],"parents":[2147483647,0,0,1,1],"right_children":[2,4,-1,-1,-1],"split_conditions":[3.6E-4,3.507E-2,-5.1850088E-2,-5.1648747E-2,5.6030776E-2],"split_indices":[0,3,0,0,0],"split_type":[0,0,0,0,0],"sum_hessian":[2.9014758E4,1.4166894E4,1.4847864E4,2.3001889E2,1.3936874E4],"tree_param":{"num_deleted":"0","num_feature":"8","num_nodes":"5","size_leaf_vector":"1"}},{"base_weights":[2.232661E-4,5.501048E-1,-5.1864278E-2,-5.0497588E-2,5.527748E-1,4.5460635E-1,5.6031503E-2,5.3029734E-1,-5.2860554E-2,5.635823E-2,4.6734637E-1,-9.332904E-2,4.828279E-2],"categories":[],"categories_nodes":[],"categories_segments":[],"categories_sizes":[],"default_left":[0,0,0,0,0,0,0,0,0,0,0,0,0],"id":90,"left_children":[1,3,-1,-1,5,7,-1,9,-1,-1,11,-1,-1],"loss_changes":[8.305402E3,4.009082E1,0E0,0E0,1.0180176E1,7.550891E1,0E0,1.7043152E0,0E0,0E0,7.62072E0,0E0,0E0],"parents":[2147483647,0,0,1,1,4,4,5,5,7,7,10,10],"right_children":[2,4,-1,-1,6,8,-1,10,-1,-1,12,-1,-1],"split_conditions":[8.4987E-1,1.3664805E-3,-5.1864278E-2,-5.0497588E-2,5.02E2,1E0,5.6031503E-2,3.5635E-1,-5.2860554E-2,5.635823E-2,2.52164E0,-9.332904E-2,4.828279E-2],"split_indices":[3,6,0,0,1,1,0,3,0,0,2,0,0],"split_type":[0,0,0,0,0,0,0,0,0,0,0,0,0],"sum_hessian":[2.9107602E4,1.4131414E4,1.4976187E4,3.519558E1,1.4096219E4,1.0098617E3,1.3086357E4,9.3810394E2,7.175775E1,6.0844135E2,3.2966263E2,2.9558759E0,3.2670673E2],"tree_param":{"num_deleted":"0","num_feature":"8","num_nodes":"13","size_leaf_vector":"1"}},{"base_weights":[-3.3884338E-4,-5.1867314E-2,5.6050736E-2],"categories":[],"categories_nodes":[],"categories_segments":[],"categories_sizes":[],"default_left":[0,0,0],"id":91,"left_children":[1,-1,-1],"loss_changes":[8.433696E3,0E0,0E0],"parents":[2147483647,0,0],"right_children":[2,-1,-1],"split_conditions":[1E0,-5.1867314E-2,5.6050736E-2],"split_indices":[7,0,0],"split_type":[0,0,0],"sum_hessian":[2.9009104E4,1.5075966E4,1.3933139E4],"tree_param":{"num_deleted":"0","num_feature":"8","num_nodes":"3","size_leaf_vector":"1"}},{"base_weights":[4.5914407E-4,-4.89289E-1,2.6890665E-1,-2.3692122E-1,-5.1615894E-2,5.5411704E-2,-5.16781E-2,-4.5517227E-1,5.5809494E-2,-5.147168E-2,-2.8651094E-1,2.00932E-1,-4.488261E-1,4.1523006E-2,-4.7514096E-2,-4.5706246E-2,3.0924827E-2],"categories":[],"categories_nodes":[],"categories_segments":[],"categories_sizes":[],"default_left":[0,0,0,0,0,0,0,0,0,0,0,0,0,0,0,0,0],"id":92,"left_children":[1,3,5,7,-1,-1,-1,9,-1,-1,11,13,15,-1,-1,-1,-1],"loss_changes":[3.494435E3,6.3692627E1,3.8475464E3,1.5770082E2,0E0,0E0,0E0,7.008148E0,0E0,0E0,1.49777775E1,7.107585E0,1.0246525E0,0E0,0E0,0E0,0E0],"parents":[2147483647,0,0,1,1,2,2,3,3,7,7,10,10,11,11,12,12],"right_children":[2,4,6,8,-1,-1,-1,10,-1,-1,12,14,16,-1,-1,-1,-1],"split_conditions":[9.06E-3,5.02E2,1E0,3.481E-2,-5.1615894E-2,5.5411704E-2,-5.16781E-2,3.63E-3,5.5809494E-2,-5.147168E-2,3E0,8.5590297E-1,8.4987E-1,4.1523006E-2,-4.7514096E-2,-4.5706246E-2,3.0924827E-2],"split_indices":[0,1,7,4,0,0,0,0,0,0,2,6,3,0,0,0,0],"split_type":[0,0,0,0,0,0,0,0,0,0,0,0,0,0,0,0,0],"sum_hessian":[2.6577379E4,9.409722E3,1.7167656E4,9.0640564E2,8.503316E3,1.2595641E4,4.5720156E3,7.1150726E2,1.9489838E2,5.2434106E2,1.871662E2,4.6696297E1,1.404699E2,3.5750206E1,1.0946092E1,1.3935292E2,1.1169709E0],"tree_param":{"num_deleted":"0","num_feature":"8","num_nodes":"17","size_leaf_vector":"1"}},{"base_weights":[-3.2460244E-4,5.368303E-1,-5.1669873E-2,-5.1449515E-2,5.5409152E-2],"categories":[],"categories_nodes":[],"categories_segments":[],"categories_sizes":[],"default_left":[0,0,0,0,0],"id":93,"left_children":[1,3,-1,-1,-1],"loss_changes":[7.3587437E3,2.3625952E2,0E0,0E0,0E0],"parents":[2147483647,0,0,1,1],"right_children":[2,4,-1,-1,-1],"split_conditions":[3.6E-4,3.507E-2,-5.1669873E-2,-5.1449515E-2,5.5409152E-2],"split_indices":[0,3,0,0,0],"split_type":[0,0,0,0,0],"sum_hessian":[2.6528148E4,1.3002422E4,1.3525728E4,2.0956644E2,1.2792855E4],"tree_param":{"num_deleted":"0","num_feature":"8","num_nodes":"5","size_leaf_vector":"1"}},{"base_weights":[2.2267115E-4,5.437802E-1,-5.168585E-2,-5.0191123E-2,5.4640895E-1,4.468748E-1,5.540991E-2,5.2095705E-1,-5.2471597E-2,5.5679765E-2,4.5411438E-1,1.2127881E-2,5.2829873E-2],"categories":[],"categories_nodes":[],"categories_segments":[],"categories_sizes":[],"default_left":[0,0,0,0,0,0,0,0,0,0,0,0,0],"id":94,"left_children":[1,3,-1,-1,5,7,-1,9,-1,-1,11,-1,-1],"loss_changes":[7.4820024E3,3.5948975E1,0E0,0E0,9.661621E0,6.747484E1,0E0,1.8265839E0,0E0,0E0,7.5504265E0,0E0,0E0],"parents":[2147483647,0,0,1,1,4,4,5,5,7,7,10,10],"right_children":[2,4,-1,-1,6,8,-1,10,-1,-1,12,-1,-1],"split_conditions":[8.4987E-1,1.3664805E-3,-5.168585E-2,-5.0191123E-2,5.02E2,1E0,5.540991E-2,3.5635E-1,-5.2471597E-2,5.5679765E-2,2.80735E0,1.2127881E-2,5.2829873E-2],"split_indices":[3,6,0,0,1,1,0,3,0,0,2,0,0],"split_type":[0,0,0,0,0,0,0,0,0,0,0,0,0],"sum_hessian":[2.661834E4,1.2976913E4,1.3641427E4,3.206467E1,1.2944849E4,9.326436E2,1.2012205E4,8.67E2,6.564358E1,5.596109E2,3.073891E2,5.650568E1,2.5088344E2],"tree_param":{"num_deleted":"0","num_feature":"8","num_nodes":"13","size_leaf_vector":"1"}},{"base_weights":[-3.5871222E-4,-5.16888E-2,5.5431075E-2],"categories":[],"categories_nodes":[],"categories_segments":[],"categories_sizes":[],"default_left":[0,0,0],"id":95,"left_children":[1,-1,-1],"loss_changes":[7.5992993E3,0E0,0E0],"parents":[2147483647,0,0],"right_children":[2,-1,-1],"split_conditions":[1E0,-5.16888E-2,5.5431075E-2],"split_indices":[7,0,0],"split_type":[0,0,0],"sum_hessian":[2.6522322E4,1.3733361E4,1.2788961E4],"tree_param":{"num_deleted":"0","num_feature":"8","num_nodes":"3","size_leaf_vector":"1"}},{"base_weights":[4.897956E-4,-4.8723462E-1,2.6670375E-1,-2.334016E-1,-5.144744E-2,5.4857392E-2,-5.151592E-2,-4.4913256E-1,5.516794E-2,-5.1283624E-2,-2.7367923E-1,1.9368495E-1,-4.4141147E-1,3.948496E-2,-4.7098916E-2,-4.4974227E-2,2.970913E-2],"categories":[],"categories_nodes":[],"categories_segments":[],"categories_sizes":[],"default_left":[0,0,0,0,0,0,0,0,0,0,0,0,0,0,0,0,0],"id":96,"left_children":[1,3,5,7,-1,-1,-1,9,-1,-1,11,13,15,-1,-1,-1,-1],"loss_changes":[3.152783E3,5.9163696E1,3.4621235E3,1.4129054E2,0E0,0E0,0E0,7.1672974E0,0E0,0E0,1.3905885E1,6.5045643E0,9.3367386E-1,0E0,0E0,0E0,0E0],"parents":[2147483647,0,0,1,1,2,2,3,3,7,7,10,10,11,11,12,12],"right_children":[2,4,6,8,-1,-1,-1,10,-1,-1,12,14,16,-1,-1,-1,-1],"split_conditions":[9.06E-3,5.02E2,1E0,3.481E-2,-5.144744E-2,5.4857392E-2,-5.151592E-2,3.63E-3,5.516794E-2,-5.1283624E-2,3E0,8.5590297E-1,8.4987E-1,3.948496E-2,-4.7098916E-2,-4.4974227E-2,2.970913E-2],"split_indices":[0,1,7,4,0,0,0,0,0,0,2,6,3,0,0,0,0],"split_type":[0,0,0,0,0,0,0,0,0,0,0,0,0,0,0,0,0],"sum_hessian":[2.428024E4,8.573005E3,1.5707234E4,8.3176776E2,7.7412373E3,1.1545319E4,4.1619155E3,6.528109E2,1.789568E2,4.775125E2,1.752984E2,4.6256344E1,1.2904207E2,3.582101E1,1.0435333E1,1.27989265E2,1.0527952E0],"tree_param":{"num_deleted":"0","num_feature":"8","num_nodes":"17","size_leaf_vector":"1"}},{"base_weights":[-3.4116287E-4,5.315117E-1,-5.1506456E-2,-5.1265102E-2,5.485453E-2],"categories":[],"categories_nodes":[],"categories_segments":[],"categories_sizes":[],"default_left":[0,0,0,0,0],"id":97,"left_children":[1,3,-1,-1,-1],"loss_changes":[6.633927E3,2.1225488E2,0E0,0E0,0E0],"parents":[2147483647,0,0,1,1],"right_children":[2,4,-1,-1,-1],"split_conditions":[3.6E-4,3.507E-2,-5.1506456E-2,-5.1265102E-2,5.485453E-2],"split_indices":[0,3,0,0,0],"split_type":[0,0,0,0,0],"sum_hessian":[2.4230893E4,1.1917135E4,1.2313759E4,1.9081816E2,1.1726316E4],"tree_param":{"num_deleted":"0","num_feature":"8","num_nodes":"5","size_leaf_vector":"1"}},{"base_weights":[2.2917874E-4,5.380895E-1,-5.152439E-2,-4.9897138E-2,5.4068637E-1,4.3955684E-1,5.4855328E-2,5.1208514E-1,-5.2109312E-2,5.5075433E-2,4.4110113E-1,1.1061501E-2,5.192983E-2],"categories":[],"categories_nodes":[],"categories_segments":[],"categories_sizes":[],"default_left":[0,0,0,0,0,0,0,0,0,0,0,0,0],"id":98,"left_children":[1,3,-1,-1,5,7,-1,9,-1,-1,11,-1,-1],"loss_changes":[6.7430415E3,3.2322998E1,0E0,0E0,9.20459E0,6.0323563E1,0E0,1.958374E0,0E0,0E0,7.3810616E0,0E0,0E0],"parents":[2147483647,0,0,1,1,4,4,5,5,7,7,10,10],"right_children":[2,4,-1,-1,6,8,-1,10,-1,-1,12,-1,-1],"split_conditions":[8.4987E-1,1.3664805E-3,-5.152439E-2,-4.9897138E-2,5.02E2,1E0,5.4855328E-2,3.5635E-1,-5.2109312E-2,5.5075433E-2,2.80735E0,1.1061501E-2,5.192983E-2],"split_indices":[3,6,0,0,1,1,0,3,0,0,2,0,0],"split_type":[0,0,0,0,0,0,0,0,0,0,0,0,0],"sum_hessian":[2.431894E4,1.1901015E4,1.2417925E4,2.9249E1,1.1871766E4,8.6096387E2,1.1010802E4,8.0095905E2,6.0004818E1,5.141254E2,2.868336E2,5.5344524E1,2.3148906E2],"tree_param":{"num_deleted":"0","num_feature":"8","num_nodes":"13","size_leaf_vector":"1"}},{"base_weights":[-3.797158E-4,-5.1527273E-2,5.487865E-2],"categories":[],"categories_nodes":[],"categories_segments":[],"categories_sizes":[],"default_left":[0,0,0],"id":99,"left_children":[1,-1,-1],"loss_changes":[6.850446E3,0E0,0E0],"parents":[2147483647,0,0],"right_children":[2,-1,-1],"split_conditions":[1E0,-5.1527273E-2,5.487865E-2],"split_indices":[7,0,0],"split_type":[0,0,0],"sum_hessian":[2.422491E4,1.2502627E4,1.1722284E4],"tree_param":{"num_deleted":"0","num_feature":"8","num_nodes":"3","size_leaf_vector":"1"}},{"base_weights":[5.240452E-4,-4.852944E-1,2.647285E-1,-2.2983487E-1,-5.12936E-2,5.4362066E-2,-5.136901E-2,-4.428962E-1,5.4591E-2,-5.1108684E-2,-2.6063034E-1,1.8661726E-1,-4.3369704E-1,8.929586E-2,-3.8049414E-4,-2.4753492E-2,-4.792097E-2],"categories":[],"categories_nodes":[],"categories_segments":[],"categories_sizes":[],"default_left":[0,0,0,0,0,0,0,0,0,0,0,0,0,0,0,0,0],"id":100,"left_children":[1,3,5,7,-1,-1,-1,9,-1,-1,11,13,15,-1,-1,-1,-1],"loss_changes":[2.8449265E3,5.501465E1,3.117057E3,1.2654036E2,0E0,0E0,0E0,7.3246155E0,0E0,0E0,1.2884397E1,6.3046927E0,8.9440346E-1,0E0,0E0,0E0,0E0],"parents":[2147483647,0,0,1,1,2,2,3,3,7,7,10,10,11,11,12,12],"right_children":[2,4,6,8,-1,-1,-1,10,-1,-1,12,14,16,-1,-1,-1,-1],"split_conditions":[9.06E-3,5.02E2,1E0,3.481E-2,-5.12936E-2,5.4362066E-2,-5.136901E-2,3.63E-3,5.4591E-2,-5.1108684E-2,3E0,2.8297424E-1,1.2367437E-1,8.929586E-2,-3.8049414E-4,-2.4753492E-2,-4.792097E-2],"split_indices":[0,1,7,4,0,0,0,0,0,0,2,6,6,0,0,0,0],"split_type":[0,0,0,0,0,0,0,0,0,0,0,0,0,0,0,0,0],"sum_hessian":[2.2162447E4,7.8066895E3,1.4355758E4,7.631435E2,7.043546E3,1.056929E4,3.786468E3,5.990431E2,1.6410043E2,4.3463156E2,1.6441154E2,4.5848713E1,1.1856283E2,8.952279E0,3.6896435E1,2.4556639E1,9.400619E1],"tree_param":{"num_deleted":"0","num_feature":"8","num_nodes":"17","size_leaf_vector":"1"}},{"base_weights":[-3.5877223E-4,5.2675664E-1,-5.1358204E-2,-5.1093675E-2,5.435885E-2],"categories":[],"categories_nodes":[],"categories_segments":[],"categories_sizes":[],"default_left":[0,0,0,0,0],"id":101,"left_children":[1,3,-1,-1,-1],"loss_changes":[5.9827256E3,1.9083252E2,0E0,0E0,0E0],"parents":[2147483647,0,0,1,1],"right_children":[2,4,-1,-1,-1],"split_conditions":[3.6E-4,3.507E-2,-5.1358204E-2,-5.1093675E-2,5.435885E-2],"split_indices":[0,3,0,0,0],"split_type":[0,0,0,0,0],"sum_hessian":[2.2113004E4,1.0908847E4,1.1204158E4,1.7365347E2,1.0735193E4],"tree_param":{"num_deleted":"0","num_feature":"8","num_nodes":"5","size_leaf_vector":"1"}},{"base_weights":[2.3556096E-4,5.329565E-1,-5.1378276E-2,-4.960581E-2,5.355259E-1,4.3253717E-1,5.43597E-2,5.035797E-1,-5.1770765E-2,5.453312E-2,4.2823946E-1,1.00669395E-2,5.1068265E-2],"categories":[],"categories_nodes":[],"categories_segments":[],"categories_sizes":[],"default_left":[0,0,0,0,0,0,0,0,0,0,0,0,0],"id":102,"left_children":[1,3,-1,-1,5,7,-1,9,-1,-1,11,-1,-1],"loss_changes":[6.0792437E3,2.9090332E1,0E0,0E0,8.804932E0,5.3946167E1,0E0,2.0955658E0,0E0,0E0,7.2044296E0,0E0,0E0],"parents":[2147483647,0,0,1,1,4,4,5,5,7,7,10,10],"right_children":[2,4,-1,-1,6,8,-1,10,-1,-1,12,-1,-1],"split_conditions":[8.4987E-1,1.3664805E-3,-5.1378276E-2,-4.960581E-2,5.02E2,1E0,5.43597E-2,3.5635E-1,-5.1770765E-2,5.453312E-2,2.80735E0,1.00669395E-2,5.1068265E-2],"split_indices":[3,6,0,0,1,1,0,3,0,0,2,0,0],"split_type":[0,0,0,0,0,0,0,0,0,0,0,0,0],"sum_hessian":[2.2198936E4,1.0901129E4,1.1297806E4,2.6673391E1,1.0874456E4,7.94249E2,1.0080207E4,7.394371E2,5.481196E1,4.717613E2,2.6767578E2,5.4269344E1,2.1340642E2],"tree_param":{"num_deleted":"0","num_feature":"8","num_nodes":"13","size_leaf_vector":"1"}},{"base_weights":[-4.0262088E-4,-5.1381107E-2,5.4385383E-2],"categories":[],"categories_nodes":[],"categories_segments":[],"categories_sizes":[],"default_left":[0,0,0],"id":103,"left_children":[1,-1,-1],"loss_changes":[6.1777896E3,0E0,0E0],"parents":[2147483647,0,0],"right_children":[2,-1,-1],"split_conditions":[1E0,-5.1381107E-2,5.4385383E-2],"split_indices":[7,0,0],"split_type":[0,0,0],"sum_hessian":[2.210687E4,1.137585E4,1.07310205E4],"tree_param":{"num_deleted":"0","num_feature":"8","num_nodes":"3","size_leaf_vector":"1"}},{"base_weights":[5.625623E-4,-4.8346594E-1,2.629542E-1,-2.2624753E-1,-5.1152825E-2,5.391875E-2,-5.1235884E-2,-4.3661436E-1,5.4070473E-2,-5.09451E-2,-2.4766105E-1,1.8294203E-1,-4.2532316E-1,3.7395194E-2,-4.6679243E-2,-2.2995586E-2,-4.7431704E-2],"categories":[],"categories_nodes":[],"categories_segments":[],"categories_sizes":[],"default_left":[0,0,0,0,0,0,0,0,0,0,0,0,0,0,0,0,0],"id":104,"left_children":[1,3,5,7,-1,-1,-1,9,-1,-1,11,13,15,-1,-1,-1,-1],"loss_changes":[2.5674436E3,5.1178833E1,2.8077815E3,1.13308235E2,0E0,0E0,0E0,7.4505844E0,0E0,0E0,1.1944522E1,5.8841314E0,9.4488907E-1,0E0,0E0,0E0,0E0],"parents":[2147483647,0,0,1,1,2,2,3,3,7,7,10,10,11,11,12,12],"right_children":[2,4,6,8,-1,-1,-1,10,-1,-1,12,14,16,-1,-1,-1,-1],"split_conditions":[9.06E-3,5.02E2,1E0,3.481E-2,-5.1152825E-2,5.391875E-2,-5.1235884E-2,3.63E-3,5.4070473E-2,-5.09451E-2,3E0,8.5590297E-1,1.2367437E-1,3.7395194E-2,-4.6679243E-2,-2.2995586E-2,-4.7431704E-2],"split_indices":[0,1,7,4,0,0,0,0,0,0,2,6,6,0,0,0,0],"split_type":[0,0,0,0,0,0,0,0,0,0,0,0,0,0,0,0,0],"sum_hessian":[2.021329E4,7.105351E3,1.3107938E4,6.998258E2,6.4055254E3,9.664807E3,3.4431318E3,5.495271E2,1.502987E2,3.954104E2,1.5411668E2,4.5005722E1,1.0911097E2,3.510883E1,9.896893E0,2.3018051E1,8.609292E1],"tree_param":{"num_deleted":"0","num_feature":"8","num_nodes":"17","size_leaf_vector":"1"}},{"base_weights":[-3.7706998E-4,5.2249855E-1,-5.1223632E-2,-5.093352E-2,5.3915143E-2],"categories":[],"categories_nodes":[],"categories_segments":[],"categories_sizes":[],"default_left":[0,0,0,0,0],"id":105,"left_children":[1,3,-1,-1,-1],"loss_changes":[5.3972256E3,1.716875E2,0E0,0E0,0E0],"parents":[2147483647,0,0,1,1],"right_children":[2,4,-1,-1,-1],"split_conditions":[3.6E-4,3.507E-2,-5.1223632E-2,-5.093352E-2,5.3915143E-2],"split_indices":[0,3,0,0,0],"split_type":[0,0,0,0,0],"sum_hessian":[2.0164088E4,9.974695E3,1.0189394E4,1.5795636E2,9.816738E3],"tree_param":{"num_deleted":"0","num_feature":"8","num_nodes":"5","size_leaf_vector":"1"}},{"base_weights":[2.3796619E-4,5.283168E-1,-5.1246047E-2,-4.930677E-2,5.3085774E-1,4.2573455E-1,5.3916037E-2,4.9535766E-1,-5.1452685E-2,5.4042604E-2,4.1551095E-1,9.079383E-3,5.0237563E-2],"categories":[],"categories_nodes":[],"categories_segments":[],"categories_sizes":[],"default_left":[0,0,0,0,0,0,0,0,0,0,0,0,0],"id":106,"left_children":[1,3,-1,-1,5,7,-1,9,-1,-1,11,-1,-1],"loss_changes":[5.4825254E3,2.615039E1,0E0,0E0,8.455811E0,4.8249878E1,0E0,2.2337036E0,0E0,0E0,7.028267E0,0E0,0E0],"parents":[2147483647,0,0,1,1,4,4,5,5,7,7,10,10],"right_children":[2,4,-1,-1,6,8,-1,10,-1,-1,12,-1,-1],"split_conditions":[8.4987E-1,1.3664805E-3,-5.1246047E-2,-4.930677E-2,5.02E2,1E0,5.3916037E-2,3.5635E-1,-5.1452685E-2,5.4042604E-2,2.80735E0,9.079383E-3,5.0237563E-2],"split_indices":[3,6,0,0,1,1,0,3,0,0,2,0,0],"split_type":[0,0,0,0,0,0,0,0,0,0,0,0,0],"sum_hessian":[2.0247762E4,9.974257E3,1.0273505E4,2.4272753E1,9.949984E3,7.32152E2,9.217832E3,6.8211676E2,5.003523E1,4.3232736E2,2.4978938E2,5.3149906E1,1.9663947E2],"tree_param":{"num_deleted":"0","num_feature":"8","num_nodes":"13","size_leaf_vector":"1"}},{"base_weights":[-4.262735E-4,-5.1248837E-2,5.3944357E-2],"categories":[],"categories_nodes":[],"categories_segments":[],"categories_sizes":[],"default_left":[0,0,0],"id":107,"left_children":[1,-1,-1],"loss_changes":[5.573122E3,0E0,0E0],"parents":[2147483647,0,0],"right_children":[2,-1,-1],"split_conditions":[1E0,-5.1248837E-2,5.3944357E-2],"split_indices":[7,0,0],